tree
version=v4
num_class=1
num_tree_per_iteration=1
label_index=0
max_feature_idx=131
objective=regression
feature_names=Column_0 Column_1 Column_2 Column_3 Column_4 Column_5 Column_6 Column_7 Column_8 Column_9 Column_10 Column_11 Column_12 Column_13 Column_14 Column_15 Column_16 Column_17 Column_18 Column_19 Column_20 Column_21 Column_22 Column_23 Column_24 Column_25 Column_26 Column_27 Column_28 Column_29 Column_30 Column_31 Column_32 Column_33 Column_34 Column_35 Column_36 Column_37 Column_38 Column_39 Column_40 Column_41 Column_42 Column_43 Column_44 Column_45 Column_46 Column_47 Column_48 Column_49 Column_50 Column_51 Column_52 Column_53 Column_54 Column_55 Column_56 Column_57 Column_58 Column_59 Column_60 Column_61 Column_62 Column_63 Column_64 Column_65 Column_66 Column_67 Column_68 Column_69 Column_70 Column_71 Column_72 Column_73 Column_74 Column_75 Column_76 Column_77 Column_78 Column_79 Column_80 Column_81 Column_82 Column_83 Column_84 Column_85 Column_86 Column_87 Column_88 Column_89 Column_90 Column_91 Column_92 Column_93 Column_94 Column_95 Column_96 Column_97 Column_98 Column_99 Column_100 Column_101 Column_102 Column_103 Column_104 Column_105 Column_106 Column_107 Column_108 Column_109 Column_110 Column_111 Column_112 Column_113 Column_114 Column_115 Column_116 Column_117 Column_118 Column_119 Column_120 Column_121 Column_122 Column_123 Column_124 Column_125 Column_126 Column_127 Column_128 Column_129 Column_130 Column_131
feature_infos=[1:53] [6:83] [1:80] [3.6000000000000001:66] [0.4081632653061224:36] [1:79] [1:94] [66:96] [1:94] [21.25:94.5] [0.375:46.5] [1:96] [1.0079400000000001:126.90447] [12.0107:208.9804] [1.9926999999999992:202.0394] [6.4234520000000002:161.9355195] [0.8133469387755099:92.692448399999989] [1.0079400000000001:196.96656899999999] [14.01:1687] [63.049999999999997:3823] [8.25:3769.5] [48.448333333333331:2755] [3.3673469387755119:1674.7555555555555] [14.01:2607] [1:17] [1:17] [0:16] [1:17] [0:8] [1:17] [1:5] [2:6] [0:5] [1.3999999999999999:5.75] [0:2.2222222222222223] [1:6] [31:148] [71:244] [0:213] [47:199.5] [0:94.5] [31:220] [0.79000000000000004:3.1600000000000001] [1.8999999999999999:3.98] [0.0099999999999997868:3.1899999999999999] [1.1124999999999998:3.8149999999999999] [0.0044444444444445468:1.5800000000000001] [0.79000000000000004:3.98] [0:2] none [0:2] [0.8571428571428571:2] [0:0.88888888888888895] [0:2] [0:5] [0:5] [0:5] [0:5] [0:2.5] [0:5] [0:10] [0:10] [0:10] [0:10] [0:5] [0:10] none [0:14] [0:14] [0:7] [0:7] none [1:17] [1:29] [0:28] [1:21] [0:12.222222222222223] [1:25] none [0:1] [0:1] [0:1] [0:0.5] [0:1] [0:4] [0:5] [0:5] [0:4.7142857142857144] [0:2] [0:5] none [0:9] [0:9] [0:4] [0:4.3200000000000003] none none none none none none none [0:4] [1:9] [0:9] [0.66666666666666663:5] [0:3.3599999999999994] [0:5] [5.6399999999999997:43.015000000000001] [7.8899999999999997:115.765] [0.23666666669999969:110.125] [7.1399999999999997:73.732083333349991] [0.11833333334999985:51.359200000000001] [5.6399999999999997:90.722499999999997] [0:2.4929999999999999] [0:7.8529999999999998] [0:7.8529999999999998] [0:6.7236666666666665] [0:3.9264999999999999] [0:7.8529999999999998] none [0:2.1106628000000001] [0:2.1106628000000001] [0:1.0553370333333334] [0:1.0553314] none [2:227] [15:229] [0:227] [12.833333333333334:228] [0:113.5] [2:229]
tree_sizes=2341 2515 2610 2604 2604 2516 2689 2517 2596 2693 2607 2521 2787 2440 2608 2536 2442 2531 2451 2525 2614 2452 2607 2620 2616 2693 2534 2533 2532 2540 2624 2527 2450 2541 2452 2452 2528 2459 2456 2537 2457 2625 2543 2629 2547 2634 2713 2469 2466 2636 2460 2637 2630 2469 2640 2632 2382 2467 2646 2547 2476 2646 2462 2651 2477 2566 2632 2558 2471 2454 2377 2471 2633 2470 2467 2554 2476 2560 2553 2468 2560 2547 2474 2649 2643 2573 2563 2483 2486 2645 2403 2557 2635 2399 2561 2476 2567 2653 2485 2729 2654 2395 2740 2485 2570 2567 2570 2578 2662 2656 2487 2495 2746 2573 2558 2670 2473 2905 2565 2558 2555 2558 2567 2574 2556 2478 2467 2563 2558 2588 2472 2395 2588 2555 2594 2470 2652 2563 2667 2406 2672 2661 2417 2404 2397 2582 2572 2677 2418 2497 2671 2577 2497 2581 2408 2590 2579 2492 2508 2504 2605 2669 2419 2497 2595 2501 2583 2606 2750 2671 2688 2589 2670 2659 2763 2518 2582 2762 2662 2766 2686 2514 2767 2593 2507 2603 2756 2596 2693 2677 2585 2591 2495 2689 2498 2692 2685 2502 2780 2687 2692 2683 2591 2584 2598 2778 2591 2428 2780 2872 2516 2516 2776 2515 2676 2605 2780 2608 2690 2693 2607 2686 2786 2605 2690 2779 2692 2691 2866 2614 2521 2699 2694 2785 2704 2790 2693 2597 2695 2697 2609 2701 2613 2601 2693 2607 2497 2526 2507 2517 2686 2599 2601 2510 2864 2696 2514 2782 2512 2609 2525 2601 2508 2609 2612 2524 2616 2623 2600 2615 2615 2703 2707 2522 2716 2702 2439 2712 2616 2440 2611 2529 2521 2692 2707 2530 2447 2617 2717 2627 2446 2533 2702 2691 2608 2618 2714 2622 2536 2607 2711 2708 2716 2706 2544 2788 2610 2625 2619 2533 2530 2681 2706 2528 2709 2792 2705 2533 2799 2716 2607 2354 2702 2711 2523 2708 2708 2613 2606 2442 2716 2598 2711 2694 2697 2627 2722 2629 2618 2618 2619 2698 2710 2714 2792 2612 2801 2619 2704 2681 2523 2711 2706 2448 2719 2708 2719 2793 2699 2619 2692 2791 2525 2717 2713 2630 2719 2704 2711 2620 2605 2708 2714 2703 2623 2440 2788 2800 2697 2613 2623 2623 2691 2515 2622 2611 2522 2685 2697 2800 2804 2698 2803 2534 2703 2688 2612 2712 2792 2859 2448 2713 2691 2533 2790 2545 2714 2529 2543 2633 2790 2710 2698 2628 2604 2708 2695 2541 2712 2697 2623 2692 2723 2707 2879 2714 2701 2633 2713 2708 2710 2732 2525 2704 2697 2714 2705 2719 2614 2817 2624 2699 2796 2629 2687 2717 2888 2626 2612 2621 2525 2632 2799 2622 2631 2711 2787 2633 2629 2729 2895 2796 2630 2539 2804 2690 2539 2722 2448 2633 2625 2616 2530 2794 2795 2631 2545 2731 2808 2542 2802 2825 2541 2737 2618 2630 2811 2625 2625 2713 2718 2718 2713 2790 2795 2713 2627 2705 2530 2630 2802 2555 2722 2813 2721 2542 2723 2637 2636 2721 2631 2730 2639 2807 2635 2814 2823 2631 2534 2718 2804 2649 2806 2645 2715 2644 2720 2734 2811 2641 2526 2539 2636 2728 2729 2706 2734 2804 2543 2548 2649 2733 2557 2636 2635 2811 2544 2721 2642 2731 2830 2631 2644 2629 2637 2725 2540 2724 2659 2723 2807 2717 2464 2728 2726 2546 2832 2723 2747 2639 2716 2639 2730 2733 2537 2636 2724 2613 2735 2725 2927 2545 2644 2970 2726 2642 2722 2544 2815 2552 2805 2829 2703 2724 2733 2811 2552 2648 2633 2829 2748 2646 2823 2473 2815 2646 2559 2649 2635 2724 2557 2622 2820 2818 2731 2722 2657 2536 2818 2727 2838 2741 2628 2716 2828 2914 2816 2532 2563 2556 2648 2826 2736 2657 2746 2644 2560 2733 2736 2927 2641 2635 2745 2742 2736 2648 2643 2642 2656 2737 2841 2748 2639 2845 2643 2740 2827 2666 2667 2752 2828 2569 3097 2817 2568 2564 2831 2735 2850 2653 2743 2649 2650 2731 2558 2649 2657 2941 2724 2915 2812 2743 2724 2836 2750 2826 2741

Tree=0
num_leaves=28
num_cat=0
split_feature=23 63 23 47 19 7 40 19 34 28 16 7 85 91 117 10 64 57 40 28 52 75 21 28 112 33 2
split_gain=499.218 324.067 98.4873 88.2363 56.9674 45.3187 45.281 36.1386 31.0269 23.0967 19.8119 14.2973 11.7704 11.0419 10.6884 10.0938 9.539 9.14558 8.10579 7.1738 4.45508 3.45306 3.00384 2.63938 2.13036 2.40785 1.23429
threshold=283.69500000000005 0.29166666666666669 54.150000000000006 3.7100000000000004 1748.0000000000002 87.500000000000014 33.714506172839513 1223.1650000000002 0.96979591836734713 6.5453061224489799 37.287119709135808 88.500000000000014 2.5000000000000004 6.5000000000000009 0.50997619047619069 6.1234567901234582 3.6643518518518521 2.2361111111111116 29.795138888888889 5.7688888888888892 0.29888888888888893 9.2916666666666696 578.54500000000019 5.4101080246913584 10.427499999991666 4.2678571428571432 36.500000000000007
decision_type=2 2 2 2 2 2 2 2 2 2 2 2 2 2 2 2 2 2 2 2 2 2 2 2 2 2 2
left_child=1 3 4 6 10 15 -1 8 -4 16 12 -10 -3 18 -11 -2 24 -8 -9 -20 -6 23 -18 -17 25 -7 -25
right_child=5 2 7 -5 20 9 17 13 11 14 -12 -13 -14 -15 -16 21 22 -19 19 -21 -22 -23 -24 26 -26 -27 -28
leaf_value=2.2227034006559463 2.1693871610187023 2.203665164667052 2.1958934794298424 2.2465447610605156 2.1874791315076854 2.1659178431809085 2.1929365832018517 2.1765669136490216 2.170753216079814 2.1732369528814397 2.1952545494122351 2.1877163734528686 2.2204863930309546 2.1807487692587113 2.1869196732371985 2.154720091033663 2.1770136938268969 2.2070157735761518 2.1613616106770781 2.1731221585547029 2.1772407874879076 2.1531138142572623 2.1698218148676371 2.1632526961997058 2.168020496849838 2.1589216460881571 2.1584313243746829
leaf_weight=39 22 21 41 21 21 24 26 25 33 30 30 21 22 27 29 23 24 22 37 21 23 33 40 32 24 27 24
leaf_count=39 22 21 41 21 21 24 26 25 33 30 30 21 22 27 29 23 24 22 37 21 23 33 40 32 24 27 24
internal_value=2.18146 2.19289 2.18481 2.21698 2.19657 2.16665 2.20984 2.17809 2.18535 2.17154 2.20528 2.17735 2.21227 2.17182 2.17996 2.15943 2.16796 2.19939 2.16892 2.16562 2.18213 2.15748 2.17252 2.1593 2.16407 2.16221 2.16119
internal_weight=762 430 322 108 117 332 87 205 95 198 73 54 43 110 59 134 139 48 83 58 44 112 64 79 75 51 56
internal_count=762 430 322 108 117 332 87 205 95 198 73 54 43 110 59 134 139 48 83 58 44 112 64 79 75 51 56
is_linear=0
shrinkage=1


Tree=1
num_leaves=28
num_cat=0
split_feature=23 63 23 47 19 7 40 19 34 28 16 7 85 91 10 10 64 105 40 28 52 75 21 28 112 33 2
split_gain=483.301 313.735 95.3471 85.4229 55.151 43.8738 43.8373 34.9864 30.0376 22.3603 19.1802 13.8414 11.3951 10.6898 10.4921 9.772 9.23485 9.08567 7.84734 6.94507 4.31303 3.34296 2.90807 2.55523 2.06244 2.33108 1.19493
threshold=283.69500000000005 0.29166666666666669 54.150000000000006 3.7100000000000004 1748.0000000000002 87.500000000000014 33.714506172839513 1223.1650000000002 0.96979591836734713 6.5453061224489799 37.287119709135808 88.500000000000014 2.5000000000000004 6.5000000000000009 40.285000000000011 6.1234567901234582 3.6643518518518521 1.1714285714285715 29.795138888888889 5.7688888888888892 0.29888888888888893 9.2916666666666696 578.54500000000019 5.4101080246913584 10.427499999991666 4.2678571428571432 36.500000000000007
decision_type=2 2 2 2 2 2 2 2 2 2 2 2 2 2 2 2 2 2 2 2 2 2 2 2 2 2 2
left_child=1 3 4 6 10 15 -1 8 -4 16 12 -10 -3 18 -11 -2 24 -8 -9 -20 -6 23 -18 -17 25 -7 -25
right_child=5 2 7 -5 20 9 17 13 11 14 -12 -13 -14 -15 -16 21 22 -19 19 -21 -22 -23 -24 26 -26 -27 -28
leaf_value=0.040583819095429165 -0.011875562038364996 0.021851551771829274 0.014204766752897245 0.064042017413363295 0.0059256479254987853 -0.015289123615354682 0.025572936848426021 -0.0048111970014183443 -0.010531461344069322 0.004545340266615636 0.013576105364959538 0.0061590771189859745 0.038402442932533927 -0.00069654915027940359 -0.009105585565875058 -0.026306914277619869 -0.004371597233731467 0.011478199675715286 -0.019772131831268844 -0.0082005909439310468 -0.0041481531989779582 -0.027887376157702072 -0.011447893989275672 -0.017911438535136878 -0.01322026240165651 -0.022172882902912042 -0.022655324882401066
leaf_weight=39 22 21 41 21 21 24 21 25 33 33 30 21 22 27 26 23 24 27 37 21 23 33 40 32 24 27 24
leaf_count=39 22 21 41 21 21 24 21 25 33 33 30 21 22 27 26 23 24 27 37 21 23 33 40 32 24 27 24
internal_value=-1.11917e-10 0.0112465 0.00329621 0.0349499 0.0148722 -0.0145662 0.0279277 -0.00331059 0.00383366 -0.00975998 0.0234386 -0.0040407 0.0303194 -0.00948062 -0.00147032 -0.0216679 -0.0132786 0.0176446 -0.0123381 -0.0155824 0.000659797 -0.0235914 -0.00879428 -0.0217969 -0.0171052 -0.0189335 -0.0199445
internal_weight=762 430 322 108 117 332 87 205 95 198 73 54 43 110 59 134 139 48 83 58 44 112 64 79 75 51 56
internal_count=762 430 322 108 117 332 87 205 95 198 73 54 43 110 59 134 139 48 83 58 44 112 64 79 75 51 56
is_linear=0
shrinkage=0.0160712


Tree=2
num_leaves=29
num_cat=0
split_feature=23 63 23 47 19 7 40 103 28 27 72 129 19 21 117 10 64 57 81 52 63 91 75 48 28 112 33 2
split_gain=467.891 303.731 92.307 82.6993 53.3926 42.4749 42.4395 34.1627 21.6473 18.997 19.0998 23.7877 18.6579 12.1546 10.2842 9.46043 8.94041 8.89351 6.77953 4.17551 4.11295 3.55934 3.23637 2.85177 2.47376 1.99668 2.25676 1.15683
threshold=283.69500000000005 0.29166666666666669 54.150000000000006 3.7100000000000004 1748.0000000000002 87.500000000000014 33.714506172839513 1.5000000000000002 6.5453061224489799 15.52777777777778 5.5000000000000009 96.750000000000014 707.67000000000007 292.13533333333339 0.50997619047619069 6.1234567901234582 3.6643518518518521 2.2361111111111116 0.21111111111111114 0.29888888888888893 3.3666666666666671 1.5000000000000002 9.2916666666666696 1.5000000000000002 5.4101080246913584 10.427499999991666 4.2678571428571432 36.500000000000007
decision_type=2 2 2 2 2 2 2 2 2 2 2 2 2 2 2 2 2 2 2 2 2 2 2 2 2 2 2 2
left_child=1 3 4 6 12 15 -1 -4 16 10 11 -9 -3 -14 -10 -2 25 -8 -13 -6 -12 -20 24 -18 -17 26 -7 -26
right_child=5 2 7 -5 19 8 17 9 14 -11 20 18 13 -15 -16 22 23 -19 21 -21 -22 -23 -24 -25 27 -27 -28 -29
leaf_value=0.039931587644111186 -0.011684707184565936 0.012137951290793125 0.015197893825817887 0.063012782737303125 0.0058304153275955083 -0.015043408759620213 0.010997662781931474 0.0080365899063474487 -0.0080436839105636222 0.0087870750202271863 -0.010445326587919567 -0.014592057982851715 0.038198841339560266 0.021759958557191046 0.0053777822737363871 -0.025884129001164952 -0.012264509843051719 0.024881472561623812 -0.0088597364185187232 -0.0040814873699376595 -0.019439465700677935 3.6956136029129268e-06 -0.027439191646684759 -0.0054662750659873064 -0.017623579604440505 -0.013007796338570805 -0.021816537830135572 -0.022291225860352561
leaf_weight=39 22 26 23 21 21 24 26 32 30 21 24 29 21 26 29 23 30 22 25 23 29 22 33 34 32 24 27 24
leaf_count=39 22 26 23 21 21 24 26 32 30 21 24 29 21 26 29 23 30 22 25 23 29 22 33 34 32 24 27 24
internal_value=-5.34617e-11 0.0110657 0.00324324 0.0343883 0.0146332 -0.0143321 0.0274789 -0.00325738 -0.00960313 -0.00558964 -0.00746486 -0.00358714 0.0230619 0.029105 -0.00144669 -0.0213197 -0.0130652 0.0173611 -0.00848134 0.000649193 -0.0153666 -0.0047109 -0.0232123 -0.00865295 -0.0214466 -0.0168303 -0.0186292 -0.019624
internal_weight=762 430 322 108 117 332 87 205 198 182 161 108 73 47 59 134 139 48 76 44 53 47 112 64 79 75 51 56
internal_count=762 430 322 108 117 332 87 205 198 182 161 108 73 47 59 134 139 48 76 44 53 47 112 64 79 75 51 56
is_linear=0
shrinkage=0.0160712


Tree=3
num_leaves=29
num_cat=0
split_feature=23 63 23 47 19 7 40 19 34 28 16 7 85 91 10 10 105 64 40 28 52 75 36 28 112 33 112 10
split_gain=452.973 294.047 89.3639 80.0625 51.6902 41.1206 41.0864 33.2632 28.6441 20.9571 18.3225 13.0432 10.8603 10.1922 10.0953 9.15879 8.83496 8.65535 7.53134 6.53071 4.04238 3.13318 2.78868 2.39488 1.93302 2.1848 1.28058 1.1296
threshold=283.69500000000005 0.29166666666666669 54.150000000000006 3.7100000000000004 1748.0000000000002 87.500000000000014 33.714506172839513 1223.1650000000002 0.96979591836734713 6.5453061224489799 37.287119709135808 88.500000000000014 2.5000000000000004 6.5000000000000009 40.285000000000011 6.1234567901234582 1.1714285714285715 3.6643518518518521 29.795138888888889 5.7688888888888892 0.29888888888888893 9.2916666666666696 119.50000000000001 5.4101080246913584 10.427499999991666 4.2678571428571432 5.9079427083312517 35.715000000000003
decision_type=2 2 2 2 2 2 2 2 2 2 2 2 2 2 2 2 2 2 2 2 2 2 2 2 2 2 2 2
left_child=1 3 4 6 10 15 -1 8 -4 17 12 -10 -3 18 -11 -2 -8 24 -9 -20 -6 23 26 -17 25 -7 -19 -25
right_child=5 2 7 -5 20 9 16 13 11 14 -12 -13 -14 -15 -16 21 -18 22 19 -21 -22 -23 -24 27 -26 -27 -28 -29
leaf_value=0.039289837107600416 -0.011496919548546316 0.021149737217862279 0.013888752250141202 0.062000091028325412 0.0057367133495675182 -0.014801642501924317 0.024900199918784404 -0.0046375803979020825 -0.010229296040895607 0.0044773724076336572 0.013051806932904461 0.0059727953984688043 0.037307560711196321 -0.00064403651595824625 -0.0089129368829203286 -0.025468138795984634 0.011001287618610077 -0.0090081721393653977 -0.019252507041381473 -0.008031469866733686 -0.0040158928083399281 -0.026998209710597919 -0.013314350282179201 -0.016766896368417914 -0.012798744847053716 -0.021465918443096081 -0.0034598004448902317 -0.021358392469439141
leaf_weight=39 22 21 41 21 21 24 21 25 33 33 30 21 22 27 26 23 27 21 37 21 23 33 21 25 24 27 22 31
leaf_count=39 22 21 41 21 21 24 21 25 33 33 30 21 22 27 26 23 27 21 37 21 23 33 21 25 24 27 22 31
internal_value=-2.18669e-11 0.0108879 0.00319112 0.0338356 0.014398 -0.0141018 0.0270373 -0.00320503 0.00376106 -0.00944879 0.0226913 -0.00392848 0.0294165 -0.0092212 -0.00142344 -0.020977 0.0170821 -0.0128552 -0.0120114 -0.0151897 0.00063876 -0.0228392 -0.00851388 -0.0211019 -0.0165599 -0.0183298 -0.00616947 -0.0193086
internal_weight=762 430 322 108 117 332 87 205 95 198 73 54 43 110 59 134 48 139 83 58 44 112 64 79 75 51 43 56
internal_count=762 430 322 108 117 332 87 205 95 198 73 54 43 110 59 134 48 139 83 58 44 112 64 79 75 51 43 56
is_linear=0
shrinkage=0.0160712


Tree=4
num_leaves=29
num_cat=0
split_feature=23 63 23 47 19 40 7 103 28 27 63 129 19 45 21 117 10 64 105 26 64 52 75 48 28 112 33 2
split_gain=438.53 284.672 86.5146 77.5097 50.0421 39.8327 39.8095 32.4365 20.2889 17.9446 18.1467 18.4589 17.8287 13.1468 11.5933 9.89518 8.86677 8.37938 7.93223 7.38312 4.03507 3.91349 3.03328 2.74555 2.31852 1.87138 2.11514 1.12332
threshold=283.69500000000005 0.29166666666666669 54.150000000000006 3.7100000000000004 1748.0000000000002 30.855000000000004 87.500000000000014 1.5000000000000002 6.5453061224489799 15.52777777777778 2.4500000000000006 96.750000000000014 707.67000000000007 2.2260714285714291 292.13533333333339 0.50997619047619069 6.1234567901234582 3.6643518518518521 2.6125000000000003 14.500000000000002 4.0400000000000009 0.29888888888888893 9.2916666666666696 1.5000000000000002 5.4101080246913584 10.427499999991666 4.2678571428571432 36.500000000000007
decision_type=2 2 2 2 2 2 2 2 2 2 2 2 2 2 2 2 2 2 2 2 2 2 2 2 2 2 2 2
left_child=1 3 4 5 12 -1 16 -4 17 10 11 -9 -3 -7 -14 -10 -2 25 20 -13 -12 -6 24 -19 -18 26 -8 -26
right_child=6 2 7 -5 21 13 8 9 15 -11 18 19 14 -15 -16 -17 22 23 -20 -21 -22 -23 -24 -25 27 -27 -28 -29
leaf_value=0.039857680944547079 -0.011312149623234954 0.011648120578078061 0.01482944421362776 0.061003671149323993 0.0056445174072841933 0.0096002890645516172 -0.014563761903899096 0.007972110554641797 -0.0078715962035852457 0.0085467195974462274 -0.01213501072280029 -0.015097893641224269 0.03711527025600405 0.025762032133319648 0.021060453395809441 0.005293604254902811 -0.025058834709038479 -0.011920724138953776 -0.004605801843163726 -0.0021717582770863792 -0.020642350512942428 -0.0039513524382113006 -0.026564314353981908 -0.0052502888290212055 -0.01702706850781854 -0.012593053385041169 -0.021120934697270069 -0.021626617929285271
leaf_weight=35 22 26 23 21 21 26 24 31 30 21 36 21 21 26 26 29 23 30 24 25 24 23 33 34 32 24 27 24
leaf_count=35 22 26 23 21 21 26 24 31 30 21 36 21 21 26 26 29 23 30 24 25 24 23 33 34 32 24 27 24
internal_value=3.82143e-11 0.0107129 0.00313983 0.0332918 0.0141666 0.0266027 -0.0138751 -0.00315352 -0.00929694 -0.00542609 -0.00724864 -0.00161317 0.0223266 0.0176812 0.0282339 -0.00140057 -0.0206399 -0.0126486 -0.0124145 -0.00807282 -0.0155379 0.000628495 -0.0224721 -0.00837706 -0.0207628 -0.0162937 -0.0180352 -0.0189983
internal_weight=762 430 322 108 117 87 332 205 198 182 161 77 73 52 47 59 134 139 84 46 60 44 112 64 79 75 51 56
internal_count=762 430 322 108 117 87 332 205 198 182 161 77 73 52 47 59 134 139 84 46 60 44 112 64 79 75 51 56
is_linear=0
shrinkage=0.0160712


Tree=5
num_leaves=28
num_cat=0
split_feature=23 63 23 47 19 40 7 19 34 28 16 7 85 91 10 105 10 64 40 28 52 75 21 28 112 33 10
split_gain=424.548 275.595 83.7561 75.0384 48.4466 38.5771 38.5402 31.6566 27.3634 19.642 17.5032 12.2721 10.3505 9.76871 9.71348 8.66537 8.58406 8.11221 7.19741 6.17353 3.78871 2.93657 2.68546 2.2446 1.81172 2.0477 1.09691
threshold=283.69500000000005 0.29166666666666669 54.150000000000006 3.7100000000000004 1748.0000000000002 33.714506172839513 87.500000000000014 1223.1650000000002 0.96979591836734713 6.5453061224489799 37.287119709135808 88.500000000000014 2.5000000000000004 6.5000000000000009 40.285000000000011 1.1714285714285715 6.1234567901234582 3.6643518518518521 29.795138888888889 5.7688888888888892 0.29888888888888893 9.2916666666666696 578.54500000000019 5.4101080246913584 10.427499999991666 4.2678571428571432 35.715000000000003
decision_type=2 2 2 2 2 2 2 2 2 2 2 2 2 2 2 2 2 2 2 2 2 2 2 2 2 2 2
left_child=1 3 4 5 10 -1 16 8 -4 17 12 -10 -3 18 -11 -7 -2 24 -9 -20 -6 23 -19 -18 25 -8 -25
right_child=6 2 7 -5 20 15 9 13 11 14 -12 -13 -14 -15 -16 -17 21 22 19 -21 -22 -23 -24 26 -26 -27 -28
leaf_value=0.038047733034049798 -0.011130349583364209 0.020470523599810001 0.013591615383724704 0.060023266389018691 0.005553802931047863 0.024271522927124797 -0.014329703877501586 -0.0044950474512691204 -0.0099344573672075481 0.0044101022971002341 0.012546295683742199 0.0057814151805008328 0.036244550724283571 -0.00057483037413868111 -0.0087245661368927051 0.010506655248640768 -0.024656108536962922 -0.0039923842112249653 -0.018760722468654723 -0.0078508539977198803 -0.0038878492382422502 -0.026137393529170484 -0.01079245058021997 -0.016188303462023924 -0.012390667392227441 -0.020781495208819337 -0.020712875857140909
leaf_weight=39 22 21 41 21 21 21 24 25 33 33 30 21 22 27 26 27 23 24 37 21 23 33 40 25 24 27 31
leaf_count=39 22 21 41 21 21 21 24 25 33 33 30 21 22 27 26 27 23 24 37 21 23 33 40 25 24 27 31
internal_value=-3.85678e-11 0.0105407 0.00308937 0.0327568 0.013939 0.0261752 -0.0136521 -0.00310284 0.00369294 -0.00914752 0.0219678 -0.00382273 0.028541 -0.00897192 -0.00137806 0.0165288 -0.0203082 -0.0124454 -0.0117035 -0.0148106 0.000618394 -0.022111 -0.00824243 -0.0204291 -0.0160319 -0.0177454 -0.018693
internal_weight=762 430 322 108 117 87 332 205 95 198 73 54 43 110 59 48 134 139 83 58 44 112 64 79 75 51 56
internal_count=762 430 322 108 117 87 332 205 95 198 73 54 43 110 59 48 134 139 83 58 44 112 64 79 75 51 56
is_linear=0
shrinkage=0.0160712


Tree=6
num_leaves=30
num_cat=0
split_feature=23 63 23 47 19 40 7 103 28 1 27 63 129 45 117 85 10 64 105 26 64 52 75 36 28 110 33 112 2
split_gain=411.012 266.808 81.0856 72.6459 46.9019 37.4426 37.3114 30.7968 19.0158 17.0439 16.9497 17.3477 17.714 12.7958 9.52091 9.49481 8.31037 7.85356 7.56383 7.11852 3.88644 3.66791 2.84294 2.63512 2.17303 1.76694 1.59419 1.25605 1.09079
threshold=283.69500000000005 0.29166666666666669 54.150000000000006 3.7100000000000004 1748.0000000000002 30.855000000000004 87.500000000000014 1.5000000000000002 6.5453061224489799 55.500000000000007 15.52777777777778 2.4500000000000006 96.750000000000014 2.2260714285714291 0.50997619047619069 2.5000000000000004 6.1234567901234582 3.6643518518518521 2.6125000000000003 14.500000000000002 4.0400000000000009 0.29888888888888893 9.2916666666666696 119.50000000000001 5.4101080246913584 18.565937500000004 4.2678571428571432 5.9079427083312517 36.500000000000007
decision_type=2 2 2 2 2 2 2 2 2 2 2 2 2 2 2 2 2 2 2 2 2 2 2 2 2 2 2 2 2
left_child=1 3 4 5 9 -1 16 -4 17 15 11 12 -9 -7 -10 -3 -2 25 20 -14 -13 -6 24 27 -18 26 -8 -19 -26
right_child=6 2 7 -5 21 13 8 10 14 -11 -12 18 19 -15 -16 -17 22 23 -20 -21 -22 -23 -24 -25 28 -27 -28 -29 -30
leaf_value=0.038605644852684716 -0.010951470928767932 0.0199415460172052 0.014469572508463664 0.059058617617095084 0.0054645463940753815 0.0091324958520605185 -0.01482989245793119 0.0078612310023015788 -0.0077033842188505832 0.0093949435076619778 0.0083125781010027835 -0.011799893252152563 -0.01475466844231486 0.025077027196469034 0.0052104434412150995 0.033686470473073646 -0.024259854158830196 -0.008642398150267341 -0.0044643050168303409 -0.0020622754471739868 -0.020149077672698384 -0.0038253667415717833 -0.025717333388768061 -0.012776380490409198 -0.016450081731098 -0.012753036172436021 -0.020881217894226922 -0.0031474121156632776 -0.020982527536953229
leaf_weight=35 22 27 23 21 21 26 23 31 30 21 21 36 21 26 29 25 23 21 24 25 24 23 33 21 32 30 22 22 24
leaf_count=35 22 27 23 21 21 26 23 31 30 21 21 36 21 26 29 25 23 21 24 25 24 23 33 21 32 30 22 22 24
internal_value=-9.7527e-11 0.0103713 0.00303972 0.0322303 0.013715 0.0257545 -0.0134327 -0.00305297 -0.00900051 0.0216148 -0.00526736 -0.00703866 -0.00152866 0.0171048 -0.00135591 0.0265497 -0.0199818 -0.0122453 -0.0120895 -0.00785663 -0.0151396 0.000608455 -0.0217556 -0.00810996 -0.0201008 -0.0157742 -0.0177883 -0.00583101 -0.0183926
internal_weight=762 430 322 108 117 87 332 205 198 73 182 161 77 52 59 52 134 139 84 46 60 44 112 64 79 75 45 43 56
internal_count=762 430 322 108 117 87 332 205 198 73 182 161 77 52 59 52 134 139 84 46 60 44 112 64 79 75 45 43 56
is_linear=0
shrinkage=0.0160712


Tree=7
num_leaves=28
num_cat=0
split_feature=23 63 23 47 19 40 7 19 34 28 19 45 7 21 91 10 10 64 40 81 52 75 48 44 110 33 41
split_gain=397.907 258.301 78.5003 70.3296 45.4064 36.2488 36.1218 30.1285 26.1405 18.4095 16.8602 12.3878 11.5448 10.9102 9.36295 9.34613 8.0454 7.60316 6.87858 5.9087 3.55097 2.75229 2.59821 2.12305 1.7106 1.54336 1.37044
threshold=283.69500000000005 0.29166666666666669 54.150000000000006 3.7100000000000004 1748.0000000000002 30.855000000000004 87.500000000000014 1223.1650000000002 0.96979591836734713 6.5453061224489799 707.67000000000007 2.2260714285714291 88.500000000000014 292.13533333333339 6.5000000000000009 40.285000000000011 6.1234567901234582 3.6643518518518521 29.795138888888889 0.31666666666666671 0.29888888888888893 9.2916666666666696 1.5000000000000002 1.1950000000000003 18.565937500000004 4.2678571428571432 147.00000000000003
decision_type=2 2 2 2 2 2 2 2 2 2 2 2 2 2 2 2 2 2 2 2 2 2 2 2 2 2 2
left_child=1 3 4 5 10 -1 16 8 -4 17 -3 -7 -10 -12 18 -11 -2 24 -9 -20 -6 23 -19 -18 25 -8 -25
right_child=6 2 7 -5 20 11 9 14 12 15 13 -13 -14 -15 -16 -17 21 22 19 -21 -22 -23 -24 26 -26 -27 -28
leaf_value=0.037985204305489378 -0.010775467374471043 0.01088296963456197 0.013300793102713334 0.058109476305935777 0.0053767246280910343 0.0089857253212683695 -0.014591557327947983 -0.0043568457563766608 -0.009647863616992363 0.0043435360159053494 0.035627717177553787 0.024674008191471992 0.0055952422979943187 0.020053062936362755 -0.0005087403522959816 -0.0085403720576382857 -0.023888700128930542 -0.011426891222696647 -0.018305805193071834 -0.0076325056644914692 -0.0037638883225531747 -0.025304023917060912 -0.0049379148412074508 -0.015186224697311472 -0.012548079052873758 -0.020545631066326665 -0.020266560111561114
leaf_weight=35 22 26 41 21 21 26 23 25 33 33 21 26 21 26 27 26 23 30 37 21 23 33 34 24 30 22 32
leaf_count=35 22 26 41 21 21 26 23 25 33 33 21 26 21 26 27 26 23 30 37 21 23 33 34 24 30 22 32
internal_value=1.16489e-10 0.0102046 0.00299087 0.0317124 0.0134945 0.0253406 -0.0132168 -0.00300391 0.00362582 -0.00885586 0.0212674 0.0168299 -0.00371999 0.027012 -0.00872959 -0.00133412 -0.0196607 -0.0120485 -0.0114038 -0.0144413 0.000598677 -0.021406 -0.00797962 -0.0197777 -0.0155207 -0.0175024 -0.0180893
internal_weight=762 430 322 108 117 87 332 205 95 198 73 52 54 47 110 59 134 139 83 58 44 112 64 79 75 45 56
internal_count=762 430 322 108 117 87 332 205 95 198 73 52 54 47 110 59 134 139 83 58 44 112 64 79 75 45 56
is_linear=0
shrinkage=0.0160712


Tree=8
num_leaves=29
num_cat=0
split_feature=23 63 23 47 19 40 7 28 27 28 1 72 129 117 85 105 28 64 75 52 10 27 21 103 41 28 108 43
split_gain=385.22 250.065 75.9974 68.0872 43.9587 35.1274 34.97 29.7906 22.1486 17.8225 16.347 14.8392 21.5598 9.1608 9.0288 8.60708 7.80693 7.36074 6.15181 3.43775 2.66997 2.54311 2.52303 1.66421 1.66137 1.54303 0.786238 0.529279
threshold=283.69500000000005 0.29166666666666669 54.150000000000006 3.7100000000000004 1748.0000000000002 33.714506172839513 87.500000000000014 6.245000000000001 15.071428571428573 6.5453061224489799 55.500000000000007 5.5000000000000009 96.750000000000014 0.50997619047619069 2.5000000000000004 1.1714285714285715 2.1020408163265309 3.6643518518518521 6.4142857142857155 0.29888888888888893 10.908979591836735 8.3750000000000018 578.54500000000019 3.5000000000000004 140.00000000000003 3.2576530612244903 16.695000000000004 2.1850000000000005
decision_type=2 2 2 2 2 2 2 2 2 2 2 2 2 2 2 2 2 2 2 2 2 2 2 2 2 2 2 2
left_child=1 3 4 5 10 -1 16 8 11 17 14 12 -4 -11 -3 -7 -2 23 -14 -6 -13 24 -19 -8 -18 -25 -26 -23
right_child=6 2 7 -5 19 15 9 -9 -10 13 -12 20 18 -15 -16 -17 21 22 -20 -21 -22 27 -24 25 26 -27 -28 -29
leaf_value=0.036262625145213834 -0.01034629091107216 0.01931463858482544 0.0064879660916557667 0.057175582344498238 0.0052903139573493418 0.02344501638541335 -0.012419138644186187 0.014713939452634987 0.0060265331337229361 -0.0075389550071419086 0.008958214998902635 -0.019592756293727833 -0.015474680860372562 0.0051282994354536742 0.032718010901281451 0.0097265279504365563 -0.01598142257675968 -0.0037318729206333619 -0.0055463489977997408 -0.003703397868339512 -0.011888070028703551 -0.025798831244288431 -0.0103230846196464 -0.014404921560994677 -0.018892300521427506 -0.020430372990829497 -0.02329006298321849 -0.022273538294428845
leaf_weight=39 21 27 32 21 21 21 31 22 37 30 21 21 27 29 25 27 27 24 40 23 26 22 40 23 21 21 21 22
leaf_count=39 21 27 32 21 21 21 31 22 37 30 21 21 27 29 25 27 27 24 40 23 26 22 40 23 21 21 21 22
internal_value=4.27369e-11 0.0100406 0.0029428 0.0312027 0.0132777 0.0249334 -0.0130044 -0.00295563 -0.00507984 -0.00871354 0.0209256 -0.00789447 -0.0043642 -0.00131268 0.0257586 0.0157284 -0.0193447 -0.0118549 -0.00954732 0.000589056 -0.0153306 -0.021017 -0.00785138 -0.0152713 -0.0190917 -0.0172807 -0.0210912 -0.0240362
internal_weight=762 430 322 108 117 87 332 205 183 198 73 146 99 59 52 48 134 139 67 44 47 113 64 75 69 44 42 44
internal_count=762 430 322 108 117 87 332 205 183 198 73 146 99 59 52 48 134 139 67 44 47 113 64 75 69 44 42 44
is_linear=0
shrinkage=0.0160712


Tree=9
num_leaves=30
num_cat=0
split_feature=23 63 23 129 19 7 103 20 28 19 27 63 129 45 21 10 10 105 64 26 64 52 75 36 44 110 33 41 112
split_gain=372.938 242.092 73.5742 66.0585 42.5571 33.8551 28.8956 28.4298 17.2542 16.1538 15.6304 16.3868 16.5802 14.6376 10.4215 8.99267 7.58017 7.15619 7.12604 6.68247 3.70045 3.32814 2.60594 2.49008 2.05135 1.65151 1.51504 1.31045 1.23171
threshold=283.69500000000005 0.29166666666666669 54.150000000000006 111.54166666666667 1748.0000000000002 87.500000000000014 1.5000000000000002 1060.8500000000001 6.5453061224489799 707.67000000000007 15.52777777777778 2.4500000000000006 96.750000000000014 2.2260714285714291 292.13533333333339 40.285000000000011 6.1234567901234582 2.6125000000000003 3.6643518518518521 14.500000000000002 4.0400000000000009 0.29888888888888893 9.2916666666666696 119.50000000000001 1.1950000000000003 18.565937500000004 4.2678571428571432 147.00000000000003 5.9079427083312517
decision_type=2 2 2 2 2 2 2 2 2 2 2 2 2 2 2 2 2 2 2 2 2 2 2 2 2 2 2 2 2
left_child=1 3 4 7 9 16 -4 -1 18 -3 11 12 -8 -5 -11 -10 -2 20 25 -14 -13 -6 24 28 -18 26 -7 -26 -20
right_child=5 2 6 13 21 8 10 -9 15 14 -12 17 19 -15 -16 -17 22 -19 23 -21 -22 -23 -24 -25 27 -27 -28 -29 -30
leaf_value=0.033787033957817854 -0.010409321474146459 0.010424765660683557 0.014064909483685783 0.011398633433242532 0.005205291857890139 -0.014088995519095098 0.0076856069809728752 0.058928380143689452 0.004277678569092707 0.034632821988622026 0.0079876446876879018 -0.011370966451407049 -0.01420434075956231 0.027162926780331078 0.019410957447768735 -0.0083602566839736034 -0.023184488482631833 -0.0042461361668212263 -0.0082938634783398888 -0.0019068370955211888 -0.019517927438740562 -0.0036438798882115755 -0.024520890759995174 -0.012261383703263245 -0.014645040537144506 -0.012105008488520367 -0.019988184536295927 -0.019612933725796332 -0.0028523875864693059
leaf_weight=26 22 26 23 29 21 23 31 21 33 21 21 36 21 32 26 26 23 24 21 25 24 23 33 21 24 30 22 32 22
leaf_count=26 22 26 23 29 21 23 31 21 33 21 21 36 21 32 26 26 23 24 21 25 24 23 33 21 24 30 22 32 22
internal_value=-6.21584e-11 0.00987927 0.00289551 0.0307012 0.0130643 -0.0127954 -0.00290813 0.0450204 -0.0085735 0.0205893 -0.00505308 -0.00675404 -0.00139881 0.0196684 0.0262122 -0.00129158 -0.0190338 -0.011663 -0.0116644 -0.00752091 -0.0146298 0.000579588 -0.0207279 -0.0077252 -0.0191435 -0.0150258 -0.016973 -0.0174838 -0.00550985
internal_weight=762 430 322 108 117 332 205 47 198 73 182 161 77 61 47 59 134 84 139 46 60 44 112 64 79 75 45 56 43
internal_count=762 430 322 108 117 332 205 47 198 73 182 161 77 61 47 59 134 84 139 46 60 44 112 64 79 75 45 56 43
is_linear=0
shrinkage=0.0160712


Tree=10
num_leaves=29
num_cat=0
split_feature=23 63 23 47 19 40 7 28 27 28 1 72 129 45 117 85 28 64 75 3 10 108 27 112 33 41 108 43
split_gain=361.047 234.373 71.2284 64.7981 41.2002 33.2692 32.7756 28.5733 20.9163 16.7041 15.6786 14.0967 20.3661 11.9408 8.81431 8.58527 7.35784 6.89884 5.94843 3.25198 2.48326 2.46193 2.43049 1.60492 1.86463 1.5819 0.74944 0.502755
threshold=283.69500000000005 0.29166666666666669 54.150000000000006 3.7100000000000004 1748.0000000000002 29.510000000000002 87.500000000000014 6.245000000000001 15.071428571428573 6.5453061224489799 55.500000000000007 5.5000000000000009 96.750000000000014 2.2260714285714291 0.50997619047619069 2.5000000000000004 2.1020408163265309 3.6643518518518521 6.4142857142857155 15.675000000000002 10.908979591836735 16.695000000000004 8.3750000000000018 10.427499999991666 4.2678571428571432 140.00000000000003 16.695000000000004 2.1850000000000005
decision_type=2 2 2 2 2 2 2 2 2 2 2 2 2 2 2 2 2 2 2 2 2 2 2 2 2 2 2 2
left_child=1 3 4 5 10 -1 16 8 11 17 15 12 -4 -7 -11 -3 -2 23 -14 -6 -13 -19 25 24 -8 -18 -27 -24
right_child=6 2 7 -5 19 13 9 -9 -10 14 -12 20 18 -15 -16 -17 22 21 -20 -21 -22 -23 27 -25 -26 26 -28 -29
leaf_value=0.036500033514051518 -0.00999214615372232 0.018707879499321522 0.0063113345613059488 0.055545605070072453 0.0051427494076454186 0.0083582073858458547 -0.013137694295991679 0.014443409564358278 0.0058512375425914956 -0.0073782184940007238 0.0085382151369930489 -0.019035106414495937 -0.015102293750828139 0.023617508383768318 0.0050471707189971874 0.031777898870970801 -0.015434235267641561 -0.009961899591141677 -0.0053394604103304223 -0.0036045952316440945 -0.011604688427460198 -0.0033925658645962034 -0.025020891627178098 -0.011357262969289334 -0.019294331797461598 -0.01827347357072457 -0.022567089482939819 -0.021585066881020139
leaf_weight=34 21 27 32 21 21 26 24 22 37 30 21 21 27 27 29 25 27 41 40 23 26 23 22 24 27 21 21 22
leaf_count=34 21 27 32 21 21 26 24 22 37 30 21 21 27 27 29 25 27 41 40 23 26 23 22 24 27 21 21 22
internal_value=5.12667e-12 0.0097205 0.00284897 0.0302078 0.0128543 0.0240918 -0.0125898 -0.0028614 -0.00494175 -0.00843571 0.0202584 -0.00767696 -0.00423614 0.0161318 -0.00127082 0.0249915 -0.0187279 -0.0114769 -0.00927374 0.000570274 -0.0149247 -0.00760105 -0.0203514 -0.0147843 -0.0163971 -0.0184692 -0.0204203 -0.023303
internal_weight=762 430 322 108 117 87 332 205 183 198 73 146 99 53 59 52 134 139 67 44 47 64 113 75 51 69 42 44
internal_count=762 430 322 108 117 87 332 205 183 198 73 146 99 53 59 52 134 139 67 44 47 64 113 75 51 69 42 44
is_linear=0
shrinkage=0.0160712


Tree=11
num_leaves=28
num_cat=0
split_feature=23 63 23 47 19 40 7 28 9 28 19 72 129 45 21 10 10 64 75 52 110 44 48 75 103 28 52
split_gain=349.535 226.901 68.9573 62.7321 39.8866 32.2085 31.7306 27.6622 20.2945 16.1715 15.4769 13.6053 22.1861 11.56 9.95506 8.65259 7.14185 6.67887 5.75876 3.20331 2.90963 2.48324 2.43458 2.35351 1.5925 1.53484 1.06429
threshold=283.69500000000005 0.29166666666666669 54.150000000000006 3.7100000000000004 1748.0000000000002 29.510000000000002 87.500000000000014 6.245000000000001 85.291666666666671 6.5453061224489799 707.67000000000007 5.5000000000000009 96.750000000000014 2.2260714285714291 292.13533333333339 40.285000000000011 6.1234567901234582 3.6643518518518521 6.4142857142857155 0.29888888888888893 13.787500000000003 1.1450000000000002 1.5000000000000002 7.7750000000000012 3.5000000000000004 3.2576530612244903 0.44097222222222227
decision_type=2 2 2 2 2 2 2 2 2 2 2 2 2 2 2 2 2 2 2 2 2 2 2 2 2 2 2
left_child=1 3 4 5 10 -1 16 8 11 17 -3 12 -4 -7 -12 -11 -2 24 -14 -6 -13 -18 -19 26 -8 -26 -23
right_child=6 2 7 -5 19 13 9 -9 -10 15 14 20 18 -15 -16 -17 21 22 -20 -21 -22 23 -24 -25 25 -27 -28
leaf_value=0.035913433031720267 -0.010055511635440266 0.0099835280332402788 0.0069741585820869215 0.054652918512005294 0.0050992349601079708 0.0082238806379262858 -0.011756744000579267 0.014211286247923435 0.0069886304782661481 0.0042125341484714543 0.033666669727746387 -0.01069156737741111 -0.014859581274488524 0.023237945784736397 0.018789376718340987 -0.0081841244034624866 -0.02369591205900793 -0.01081584174476238 -0.0052536486511157166 -0.0035823976895720112 -0.018386373451311458 -0.018737977392409174 -0.0045345150326206026 -0.023090652315594738 -0.01364428668143867 -0.019653717901517681 -0.014312385165274421
leaf_weight=34 22 26 33 21 21 26 31 22 31 33 21 30 27 27 26 26 34 30 40 23 22 32 34 21 23 21 25
leaf_count=34 22 26 33 21 21 26 31 22 31 33 21 30 27 27 26 26 34 30 40 23 22 32 34 21 23 21 25
internal_value=5.58335e-11 0.00956428 0.00280319 0.0297223 0.0126477 0.0237046 -0.0123875 -0.00281541 -0.00486233 -0.00830014 0.0199328 -0.00727931 -0.00381207 0.0158726 0.0254367 -0.0012504 -0.0184269 -0.0112925 -0.0091247 0.000561109 -0.0139471 -0.0200713 -0.00747889 -0.0184914 -0.0145467 -0.0165124 -0.0167969
internal_weight=762 430 322 108 117 87 332 205 183 198 73 152 100 53 47 59 134 139 67 44 52 112 64 78 75 44 57
internal_count=762 430 322 108 117 87 332 205 183 198 73 152 100 53 47 59 134 139 67 44 52 112 64 78 75 44 57
is_linear=0
shrinkage=0.0160712


Tree=12
num_leaves=31
num_cat=0
split_feature=23 63 23 47 19 40 7 103 28 1 27 63 129 105 117 85 28 64 28 75 115 3 36 27 110 41 33 112 108 43
split_gain=338.391 219.666 66.7587 60.7319 38.6148 31.1915 30.7189 27.223 15.6559 15.0377 14.3726 15.4573 12.6567 8.63266 8.48093 8.16317 6.9361 6.46592 5.67759 5.85306 5.22591 3.12994 2.35949 2.31594 1.55839 1.52144 1.43727 1.22954 0.708633 0.481586
threshold=283.69500000000005 0.29166666666666669 54.150000000000006 3.7100000000000004 1748.0000000000002 33.714506172839513 87.500000000000014 1.5000000000000002 6.5453061224489799 55.500000000000007 15.52777777777778 2.9285714285714293 91.40000000000002 1.1714285714285715 0.50997619047619069 2.5000000000000004 2.1020408163265309 3.6643518518518521 6.2311111111111126 6.4142857142857155 1.0000000180025095e-35 15.675000000000002 119.50000000000001 8.3750000000000018 18.565937500000004 140.00000000000003 4.2678571428571432 5.9079427083312517 16.695000000000004 2.1850000000000005
decision_type=2 2 2 2 2 2 2 2 2 2 2 2 2 2 2 2 2 2 2 2 2 2 2 2 2 2 2 2 2 2
left_child=1 3 4 5 9 -1 16 -4 17 15 11 12 -9 -7 -10 -3 -2 24 19 -14 -13 -6 27 25 26 -18 -8 -19 -27 -25
right_child=6 2 7 -5 21 13 8 10 14 -11 -12 20 18 -15 -16 -17 23 22 -20 -21 -22 -23 -24 29 -26 28 -28 -29 -30 -31
leaf_value=0.033999357126603777 -0.009649077465759567 0.01812061805496892 0.013704343202888859 0.053774578888360069 0.0050379442909589661 0.022377767034927994 -0.013395433282822809 0.0068073856483448006 -0.0072210860217678183 0.0081343541365764861 0.0076529212955282772 -0.017337098415770653 -0.015470414798337953 0.0086389021124698932 0.0049670557327087979 0.030865290187193809 -0.014893350622816092 -0.0079837797704876579 0.00098168268037054224 -0.0044815734651039172 -0.0079177417630510241 -0.0035436879570830493 -0.011774328767506311 -0.024269599615664023 -0.011475673920955387 -0.017695644178940671 -0.019141215363663533 -0.0025470913897717466 -0.021870730160565423 -0.020906884491300334
leaf_weight=39 21 27 23 21 21 21 23 27 30 21 21 32 21 27 29 25 27 21 21 31 29 23 21 22 30 21 22 22 21 22
leaf_count=39 21 27 23 21 21 21 23 27 30 21 21 32 21 27 29 25 27 21 21 31 29 23 21 22 30 21 22 22 21 22
internal_value=-5.18314e-12 0.00941057 0.00275813 0.0292447 0.0124445 0.0233237 -0.0121884 -0.00277016 -0.00816675 0.0196125 -0.0048521 -0.0064832 -0.00259393 0.0146497 -0.0012303 0.0242479 -0.0181308 -0.011111 -0.00607113 -0.00891937 -0.012859 0.000552091 -0.00735869 -0.0197071 -0.014313 -0.0178698 -0.0162045 -0.00520222 -0.0197832 -0.0225882
internal_weight=762 430 322 108 117 87 332 205 198 73 182 161 100 48 59 52 134 139 73 52 61 44 64 113 75 69 45 43 42 44
internal_count=762 430 322 108 117 87 332 205 198 73 182 161 100 48 59 52 134 139 73 52 61 44 64 113 75 69 45 43 42 44
is_linear=0
shrinkage=0.0160712


Tree=13
num_leaves=27
num_cat=0
split_feature=23 63 23 129 19 7 20 19 34 28 19 45 7 21 10 91 15 64 40 81 52 108 75 103 28 131
split_gain=327.601 212.662 64.6301 58.9096 37.3836 29.7394 27.288 26.4571 23.8552 15.1567 14.8284 13.0521 9.93195 9.50975 8.32536 8.21468 6.76214 6.25976 6.17052 5.275 3.08316 2.35819 2.25885 1.53516 1.50838 1.15661
threshold=283.69500000000005 0.29166666666666669 54.150000000000006 111.54166666666667 1748.0000000000002 87.500000000000014 1060.8500000000001 1223.1650000000002 0.96979591836734713 6.5453061224489799 707.67000000000007 2.2260714285714291 88.500000000000014 292.13533333333339 40.285000000000011 6.5000000000000009 34.957778468571441 3.6643518518518521 29.795138888888889 0.31666666666666671 0.29888888888888893 16.695000000000004 9.2916666666666696 3.5000000000000004 3.2576530612244903 209.50000000000003
decision_type=2 2 2 2 2 2 2 2 2 2 2 2 2 2 2 2 2 2 2 2 2 2 2 2 2 2
left_child=1 3 4 6 10 16 -1 8 -4 17 -3 -5 -10 -12 -11 18 -2 23 -9 -20 -6 -19 25 -7 -25 -18
right_child=5 2 7 11 20 9 -8 15 12 14 13 -13 -14 -15 -16 -17 22 21 19 -21 -22 -23 -24 24 -26 -27
leaf_value=0.031291352521012727 -0.0094647287503347166 0.0095586658718898564 0.012729407816276348 0.010546864778053194 0.0049954252610534284 -0.011343623108519208 0.055922699423577776 -0.0039215828008093293 -0.0090285685332029582 0.0041481067553551893 0.0327284044701859 0.025432932419409079 0.0051097177428107432 0.018187662951898217 -0.0080118815664270617 -0.00039086327764308699 -0.01591666233795826 -0.0095510064937581376 -0.017124309285398508 -0.0070395846417236835 -0.0035218403214903817 -0.0031215726685511454 -0.022787866238052235 -0.013169585749760701 -0.019127005380766442 -0.019830708584577545
leaf_weight=26 21 26 41 29 21 31 21 25 33 33 21 32 21 26 26 27 39 41 37 21 23 23 35 23 21 39
leaf_count=26 21 26 41 29 21 31 21 25 33 33 21 32 21 26 26 27 39 41 37 21 23 23 35 23 21 39
internal_value=2.96993e-11 0.00925933 0.00271381 0.0287747 0.0122445 -0.0119925 0.0422968 -0.00272564 0.00348702 -0.0080355 0.0192973 0.0183559 -0.00353035 0.0246846 -0.00121053 -0.00809112 -0.0178394 -0.0109324 -0.010596 -0.0134729 0.000543218 -0.00724043 -0.0193958 -0.0140829 -0.0160129 -0.0178737
internal_weight=762 430 322 108 117 332 47 205 95 198 73 61 54 47 59 110 134 139 83 58 44 64 113 75 44 78
internal_count=762 430 322 108 117 332 47 205 95 198 73 61 54 47 59 110 134 139 83 58 44 64 113 75 44 78
is_linear=0
shrinkage=0.0160712


Tree=14
num_leaves=29
num_cat=0
split_feature=23 63 23 47 19 40 7 28 27 28 16 72 129 45 85 117 28 64 75 3 48 10 27 14 40 41 108 43
split_gain=317.156 205.882 62.5695 57.798 36.1917 29.5515 28.7912 26.1249 18.8441 14.6734 14.4287 12.7542 18.4765 10.8019 8.39207 8.16016 6.60316 6.06017 5.35235 3.01247 2.32129 2.24921 2.22266 1.52106 2.76544 1.44136 0.674603 0.451999
threshold=283.69500000000005 0.29166666666666669 54.150000000000006 3.7100000000000004 1748.0000000000002 29.510000000000002 87.500000000000014 6.245000000000001 15.071428571428573 6.5453061224489799 37.287119709135808 5.5000000000000009 96.750000000000014 2.2260714285714291 2.5000000000000004 0.50997619047619069 2.1020408163265309 3.6643518518518521 6.4142857142857155 15.675000000000002 1.5000000000000002 10.908979591836735 8.3750000000000018 69.687923400000017 8.9244444444444451 140.00000000000003 16.695000000000004 2.1850000000000005
decision_type=2 2 2 2 2 2 2 2 2 2 2 2 2 2 2 2 2 2 2 2 2 2 2 2 2 2 2 2
left_child=1 3 4 5 10 -1 16 8 11 17 14 12 -4 -7 -3 -11 -2 23 -14 -6 -19 -13 25 24 -8 -18 -27 -24
right_child=6 2 7 -5 19 13 9 -9 -10 15 -12 21 18 -15 -16 -17 22 20 -20 -21 -22 -23 27 -25 -26 26 -28 -29
leaf_value=0.034230406623297925 -0.0092770640378515585 0.01768820207776093 0.0060518890407975819 0.052242293718240573 0.0049353597671869332 0.0076403129384168354 -0.011199092671683375 0.01386496118606461 0.005573346897478423 -0.0070674723214276163 0.010433016065676252 -0.018073145578437869 -0.014321407961445034 0.022153726036976122 0.03189176033811876 0.0048879518149528246 -0.014393728499483551 -0.010382455917061956 -0.0050606345075732062 -0.0034836990002620107 -0.0042490164038570394 -0.011001563411603965 -0.023542133045437841 -0.010804979362825186 -0.018975175902282027 -0.017116348416197191 -0.021189953011049496 -0.020284354755031538
leaf_weight=34 21 21 32 21 21 26 21 22 37 30 30 21 27 27 22 29 27 30 40 23 34 26 22 27 27 21 21 22
leaf_count=34 21 21 32 21 21 26 21 22 37 30 30 21 27 27 22 29 27 30 40 23 34 26 22 27 27 21 21 22
internal_value=-3.02689e-11 0.00911052 0.00267019 0.0283122 0.0120477 0.022536 -0.0117998 -0.00268184 -0.00467107 -0.00790636 0.0189871 -0.00726726 -0.00399437 0.0150339 0.0249551 -0.00119108 -0.0175527 -0.0107567 -0.00879259 0.000534488 -0.00712407 -0.0141612 -0.0190907 -0.0138566 -0.0155731 -0.0172908 -0.0191532 -0.0219132
internal_weight=762 430 322 108 117 87 332 205 183 198 73 146 99 53 43 59 134 139 67 44 64 47 113 75 48 69 42 44
internal_count=762 430 322 108 117 87 332 205 183 198 73 146 99 53 43 59 134 139 67 44 64 47 113 75 48 69 42 44
is_linear=0
shrinkage=0.0160712


Tree=15
num_leaves=28
num_cat=0
split_feature=23 63 23 47 19 40 7 103 28 19 27 63 129 45 21 10 15 64 28 75 115 52 108 75 110 33 131
split_gain=307.044 199.317 60.5745 55.9552 35.0377 28.6093 27.8732 25.5423 14.2056 14.1704 13.2491 14.7533 11.9038 10.4575 9.07123 8.01051 6.45051 5.86695 5.26196 5.4804 4.67059 2.96752 2.25997 2.12821 1.50122 1.41288 1.09072
threshold=283.69500000000005 0.29166666666666669 54.150000000000006 3.7100000000000004 1748.0000000000002 29.510000000000002 87.500000000000014 1.5000000000000002 6.5453061224489799 707.67000000000007 15.52777777777778 2.9285714285714293 91.40000000000002 2.2260714285714291 292.13533333333339 40.285000000000011 34.957778468571441 3.6643518518518521 6.2311111111111126 6.4142857142857155 1.0000000180025095e-35 0.29888888888888893 16.695000000000004 9.2916666666666696 18.565937500000004 4.2678571428571432 209.50000000000003
decision_type=2 2 2 2 2 2 2 2 2 2 2 2 2 2 2 2 2 2 2 2 2 2 2 2 2 2 2
left_child=1 3 4 5 9 -1 16 -4 17 -3 11 12 -9 -7 -11 -10 -2 24 19 -14 -13 -6 -19 26 25 -8 -18
right_child=6 2 7 -5 21 13 8 10 15 14 -12 20 18 -15 -16 -17 23 22 -20 -21 -22 -23 -24 -25 -26 -27 -28
leaf_value=0.033680281694590863 -0.0090911819184168931 0.009161894875477871 0.013319113073224446 0.051402695773632573 0.0048938130846391276 0.007517523423119064 -0.012705294675108248 0.0066956657396783168 0.0040843993682778508 0.031804598771124591 0.0073509601573496499 -0.01668385465485871 -0.014875035311547121 0.021797688110752434 0.017603071738552748 -0.0078434370619089554 -0.015412813589127794 -0.0092715223484439047 0.00099578883749286092 -0.0042417736695692749 -0.0077790100980019913 -0.0034621978949997368 -0.0029774037269918747 -0.022083235108268255 -0.010849160387243777 -0.018402117614325735 -0.019213736134555993
leaf_weight=34 21 26 23 21 21 26 23 27 33 21 21 32 21 27 26 26 39 41 21 31 29 23 23 35 30 22 39
leaf_count=34 21 26 23 21 21 26 23 27 33 21 21 32 21 27 26 26 39 41 21 31 29 23 23 35 30 22 39
internal_value=-1.01944e-11 0.0089641 0.00262728 0.0278572 0.0118541 0.0221738 -0.0116101 -0.00263874 -0.00777929 0.018682 -0.00465539 -0.00622143 -0.00242176 0.0147923 0.0239484 -0.00117194 -0.0172706 -0.0105839 -0.00579396 -0.00853598 -0.0124504 0.000525898 -0.00700957 -0.0187907 -0.0136339 -0.0154904 -0.0173133
internal_weight=762 430 322 108 117 87 332 205 198 73 182 161 100 53 47 59 134 139 73 52 61 44 64 113 75 45 78
internal_count=762 430 322 108 117 87 332 205 198 73 182 161 100 53 47 59 134 139 73 52 61 44 64 113 75 45 78
is_linear=0
shrinkage=0.0160712


Tree=16
num_leaves=27
num_cat=0
split_feature=23 63 23 47 19 40 7 28 27 1 28 72 129 45 117 85 10 64 75 3 44 21 10 75 45 52
split_gain=297.254 192.962 58.6431 54.1711 33.9206 27.6971 26.9845 24.9396 17.8212 13.9425 13.7527 12.1375 17.5415 10.1241 7.85152 7.36339 6.30293 5.67989 5.09702 2.89941 2.32857 2.23547 2.08595 2.06503 1.49663 0.999452
threshold=283.69500000000005 0.29166666666666669 54.150000000000006 3.7100000000000004 1748.0000000000002 29.510000000000002 87.500000000000014 6.245000000000001 15.071428571428573 55.500000000000007 6.5453061224489799 5.5000000000000009 96.750000000000014 2.2260714285714291 0.50997619047619069 2.5000000000000004 6.1234567901234582 3.6643518518518521 6.4142857142857155 15.675000000000002 1.1450000000000002 578.54500000000019 10.908979591836735 7.7750000000000012 2.1741666666666672 0.44097222222222227
decision_type=2 2 2 2 2 2 2 2 2 2 2 2 2 2 2 2 2 2 2 2 2 2 2 2 2 2
left_child=1 3 4 5 9 -1 16 8 11 15 17 12 -4 -7 -12 -3 -2 24 -14 -6 -18 -19 -13 25 -8 -22
right_child=6 2 7 -5 19 13 10 -9 -10 -11 14 22 18 -15 -16 -17 20 21 -20 -21 23 -23 -24 -25 -26 -27
leaf_value=0.033138998018696623 -0.0091286561417255503 0.017025796460955617 0.0059168751582237694 0.05057659082296935 0.004834946212271843 0.0073967076305435789 -0.015841808631031642 0.013570750023529633 0.0054225666501492411 0.0073295313048310851 -0.0069172930971019703 -0.017557156922028326 -0.013942429906766522 0.021447372606240439 0.0048098568971165438 0.029130053516884805 -0.022047740200285475 -0.0030192791875853033 -0.0049052432286558036 -0.0034246187169002344 -0.017301683155361319 -0.0092235061035208458 -0.010747050714606953 -0.021316078794755899 -0.011291158563006965 -0.013013011851130702
leaf_weight=34 22 27 32 21 21 26 35 22 37 21 30 21 27 27 29 25 34 24 40 23 32 40 26 21 40 25
leaf_count=34 22 27 32 21 21 26 35 22 37 21 30 21 27 27 29 25 34 24 40 23 32 40 26 21 40 25
internal_value=1.76782e-11 0.00882004 0.00258506 0.0274095 0.0116636 0.0218175 -0.0114235 -0.00259633 -0.00453991 0.0183818 -0.00765427 -0.00706465 -0.00387187 0.0145546 -0.0011531 0.0228452 -0.0169931 -0.0104138 -0.00854709 0.000517446 -0.0185379 -0.00689692 -0.0137899 -0.0170079 -0.0134148 -0.0154207
internal_weight=762 430 322 108 117 87 332 205 183 73 198 146 99 53 59 52 134 139 67 44 112 64 47 78 75 57
internal_count=762 430 322 108 117 87 332 205 183 73 198 146 99 53 59 52 134 139 67 44 112 64 47 78 75 57
is_linear=0
shrinkage=0.0160712


Tree=17
num_leaves=28
num_cat=0
split_feature=23 61 23 129 20 20 7 108 33 40 28 16 45 10 46 40 93 28 62 117 44 110 27 74 41 108 43
split_gain=287.776 186.858 60.3207 54.5224 29.7927 26.4684 26.1241 23.9336 13.5943 14.9544 13.3142 13.1678 9.76694 7.70756 7.40862 7.33216 7.03117 6.12134 5.51413 5.15595 3.41186 3.34826 2.09954 1.41014 1.35661 0.627188 0.419862
threshold=283.69500000000005 1.0000000180025095e-35 54.150000000000006 120.25000000000001 1773.9000000000003 879.32000000000016 87.500000000000014 19.176250000000007 2.8452380952380958 43.691851851851858 6.5453061224489799 23.393584826388892 2.2260714285714291 40.285000000000011 0.9353125000000001 29.291666666666668 1.2250000000000003 2.1020408163265309 9.5000000000000018 0.73125000000000007 1.8050000000000004 18.565937500000004 8.3750000000000018 8.5000000000000018 140.00000000000003 16.695000000000004 2.1850000000000005
decision_type=2 2 2 2 2 2 2 2 2 2 2 2 2 2 2 2 2 2 2 2 2 2 2 2 2 2 2
left_child=1 3 4 5 11 -1 17 8 -4 15 18 -3 -5 -12 -13 -10 -11 -2 21 -20 -17 -8 24 -21 -19 -26 -24
right_child=6 2 7 12 -6 -7 10 -9 9 16 13 14 -14 -15 -16 20 -18 22 19 23 -22 -23 26 -25 25 -27 -28
leaf_value=0.02898829985346963 -0.0087519539173983949 0.025693506537520505 0.0047689470545826751 0.0099470156259415573 0.00021847811205710679 0.052656254644285187 -0.01647612711134146 0.0090773836475236472 -0.0039960264302112717 -0.0054011170654982696 0.0040214146047389604 0.0061653204463970697 0.024256478238876375 -0.0076787022480128107 0.018418430703803224 -0.017564421408400192 0.0064976457614441966 -0.013640830289995812 -0.012661047738856946 -0.0065457277169064902 -0.010008549903817358 -0.0087042508739346436 -0.022513943848332087 -0.00094643952357857935 -0.016294280119555776 -0.020222119212032263 -0.019374112693438989
leaf_weight=26 21 31 31 28 38 23 41 39 27 29 33 25 22 26 26 33 23 27 29 26 29 22 22 21 21 21 22
leaf_count=26 21 31 31 28 38 23 41 39 27 29 33 25 22 26 26 33 23 27 29 26 29 22 22 21 21 21 22
internal_value=-2.47985e-11 0.00867829 0.00288434 0.02805 0.0119818 0.0400977 -0.01124 -0.00228956 -0.00486695 -0.00698548 -0.00753126 0.0174331 0.0162432 -0.00113457 0.012412 -0.0109861 -0.000138203 -0.01672 -0.0102464 -0.00733203 -0.0140302 -0.0137621 -0.0182007 -0.00404392 -0.0164514 -0.0182582 -0.020944
internal_weight=762 430 331 99 120 49 332 211 172 141 198 82 50 59 51 89 52 134 139 76 62 63 113 47 69 42 44
internal_count=762 430 331 99 120 49 332 211 172 141 198 82 50 59 51 89 52 134 139 76 62 63 113 47 69 42 44
is_linear=0
shrinkage=0.0160712


Tree=18
num_leaves=27
num_cat=0
split_feature=23 63 23 47 19 40 7 103 19 28 27 63 129 105 85 117 15 64 28 75 115 52 48 75 45 131
split_gain=278.601 181.191 54.9151 51.7669 32.0903 26.1637 25.2912 24.1529 13.4886 12.8897 12.3153 13.7991 11.2383 8.73853 8.62916 7.55455 6.02744 5.3453 4.86143 5.14359 4.14294 2.7809 2.15136 1.94473 1.44903 1.00732
threshold=283.69500000000005 0.29166666666666669 54.150000000000006 3.7100000000000004 1748.0000000000002 33.714506172839513 87.500000000000014 1.5000000000000002 707.67000000000007 6.5453061224489799 15.52777777777778 2.9285714285714293 91.40000000000002 1.1714285714285715 2.5000000000000004 0.50997619047619069 34.957778468571441 3.6643518518518521 6.2311111111111126 6.4142857142857155 1.0000000180025095e-35 0.29888888888888893 1.5000000000000002 9.2916666666666696 2.1741666666666672 209.50000000000003
decision_type=2 2 2 2 2 2 2 2 2 2 2 2 2 2 2 2 2 2 2 2 2 2 2 2 2 2
left_child=1 3 4 5 8 -1 16 -4 -3 17 11 12 -9 -7 -10 -11 -2 24 19 -14 -13 -6 -19 25 -8 -18
right_child=6 2 7 -5 21 13 9 10 14 15 -12 20 18 -15 -16 -17 23 22 -20 -21 -22 -23 -24 -25 -26 -27
leaf_value=0.030863339647196366 -0.0085445926535517684 0.0085283817027323721 0.013000766824451723 0.049199536755046437 0.0046693108821959572 0.020916967622996514 -0.015381133390785269 0.0065457580745504739 0.015920421989022236 -0.0067704672579549496 0.0070974520260098303 -0.015999186823761606 -0.014366487870739813 0.0070941188334635299 0.029696101769109511 0.0047327672239040044 -0.014681975970633998 -0.0098068999472208998 0.00093651398508997827 -0.0040651438433425774 -0.0076124168786273674 -0.0034196890291317028 -0.0039022259082713753 -0.021068043591805214 -0.010903436618661022 -0.018334687797140814
leaf_weight=39 21 26 23 21 21 21 35 27 23 30 21 32 21 27 24 29 39 30 21 31 29 23 34 35 40 39
leaf_count=39 21 26 23 21 21 21 35 27 23 30 21 32 21 27 24 29 39 30 21 31 29 23 34 35 40 39
internal_value=-2.67628e-11 0.00853882 0.002497 0.0265524 0.0112822 0.0210858 -0.0110593 -0.00251699 0.0178166 -0.00741022 -0.00447803 -0.00598787 -0.00231313 0.0131416 0.0229548 -0.00111634 -0.0164513 -0.0100817 -0.00558971 -0.0082253 -0.012012 0.00044097 -0.00667004 -0.0179206 -0.012993 -0.0165083
internal_weight=762 430 322 108 117 87 332 205 73 198 182 161 100 48 47 59 134 139 73 52 61 44 64 113 75 78
internal_count=762 430 322 108 117 87 332 205 73 198 182 161 100 48 47 59 134 139 73 52 61 44 64 113 75 78
is_linear=0
shrinkage=0.0160712


Tree=19
num_leaves=28
num_cat=0
split_feature=23 63 23 47 19 40 7 28 40 44 8 1 28 129 45 10 85 15 62 117 130 110 3 75 74 34 64
split_gain=269.718 175.414 53.1642 50.1163 31.0671 25.368 24.4848 23.5454 16.722 14.424 13.9245 13.1955 12.4787 9.53528 9.49775 7.41607 6.9651 5.83526 5.19713 4.93197 4.55523 3.24985 2.72229 1.88273 1.37433 0.981872 1.29463
threshold=283.69500000000005 0.29166666666666669 54.150000000000006 3.7100000000000004 1748.0000000000002 29.510000000000002 87.500000000000014 6.245000000000001 28.24617346938776 1.8050000000000004 27.500000000000004 55.500000000000007 6.5453061224489799 117.04285714285716 2.2260714285714291 40.285000000000011 2.5000000000000004 34.957778468571441 9.5000000000000018 0.73125000000000007 91.055555555555586 18.565937500000004 15.675000000000002 9.2916666666666696 8.5000000000000018 0.94874999999999998 4.0808163265306137
decision_type=2 2 2 2 2 2 2 2 2 2 2 2 2 2 2 2 2 2 2 2 2 2 2 2 2 2 2
left_child=1 3 4 5 11 -1 17 8 10 -10 -4 16 18 20 -7 -14 -3 -2 21 -20 -11 -8 -6 25 -21 26 -19
right_child=6 2 7 -5 22 14 12 -9 9 13 -12 -13 15 -15 -16 -17 -18 23 19 24 -22 -23 -24 -25 -26 -27 -28
leaf_value=0.031582016384506993 -0.0084072705600580673 0.016212712117671679 0.0093974330587573169 0.048408839327212176 0.0046174283276616251 0.0068632374221890991 -0.016006695443379217 0.013232139693856502 -0.0162021066944616 0.004044616566714938 -0.0070116038707662177 0.0067781915840989544 0.0039591543055151257 -0.010764837750187654 0.020472329457274698 -0.007517590346873596 0.027985054425697379 -0.017613490730534694 -0.012302324936675367 -0.0063442899545336235 -0.0051757343183779824 -0.0083498791332361801 -0.0033858756420112571 -0.020729454206067754 -0.00081654378402154298 -0.019213711916361731 -0.012768623016085763
leaf_weight=34 21 27 34 21 21 26 41 22 36 31 22 21 33 35 27 26 25 28 29 26 25 22 23 35 21 21 29
leaf_count=34 21 27 34 21 21 26 41 22 36 31 22 21 33 35 27 26 25 28 29 26 25 22 23 35 21 21 29
internal_value=-8.79979e-12 0.00840159 0.00245687 0.0261257 0.0111009 0.020747 -0.0108816 -0.00247654 -0.00436502 -0.00759099 0.00295103 0.0175303 -0.00729113 -0.00418439 0.0137962 -0.00109839 0.0218725 -0.0161869 -0.0099197 -0.00709035 -7.16115e-05 -0.0133329 0.000433883 -0.0176326 -0.00387445 -0.016243 -0.0151486
internal_weight=762 430 322 108 117 87 332 205 183 127 56 73 198 91 53 59 52 134 139 76 56 63 44 113 47 78 57
internal_count=762 430 322 108 117 87 332 205 183 127 56 73 198 91 53 59 52 134 139 76 56 63 44 113 47 78 57
is_linear=0
shrinkage=0.0160712


Tree=20
num_leaves=29
num_cat=0
split_feature=23 61 23 129 20 19 7 103 94 58 16 28 38 128 63 45 117 46 28 39 4 38 44 63 75 0 112 52
split_gain=261.118 170.145 54.6779 50.3619 27.3072 25.6913 23.7041 22.1865 13.1179 16.5111 12.5409 12.0808 11.4949 11.5259 9.68187 9.04073 7.26881 7.22419 5.73584 5.05345 5.92371 2.22394 2.03647 1.94212 1.85594 1.7227 1.23016 0.94278
threshold=283.69500000000005 1.0000000180025095e-35 54.150000000000006 120.25000000000001 1773.9000000000003 1025.0000000000002 87.500000000000014 1.5000000000000002 3.2430555555555558 1.6795061728395062 23.393584826388892 6.5453061224489799 61.500000000000007 181.00000000000003 1.6333333333333335 2.2260714285714291 0.50997619047619069 0.9353125000000001 2.1020408163265309 115.87500000000001 16.881944444444446 15.500000000000002 1.1450000000000002 3.5833333333333335 7.7750000000000012 30.500000000000004 6.4230707908163263 0.44097222222222227
decision_type=2 2 2 2 2 2 2 2 2 2 2 2 2 2 2 2 2 2 2 2 2 2 2 2 2 2 2 2
left_child=1 3 4 5 10 -1 18 -4 9 12 -3 19 -9 -14 -11 -5 -13 -12 -2 -8 21 -21 -20 -16 27 26 -23 -24
right_child=6 2 7 15 -6 -7 11 8 -10 14 17 16 13 -15 23 -17 -18 -19 22 20 -22 25 24 -25 -26 -27 -28 -29
leaf_value=0.028252605089182176 -0.0082136901755466112 0.024679620923785638 0.012711175640369226 0.0093466983734836195 0.00013735470105222968 0.051767992418633731 -0.0032166536106429124 0.010317835381962449 0.0073595808054095838 -0.0031681171985340666 0.005549678979453531 -0.0066269149792770035 -0.012499412291718403 0.0033061062665846728 -0.010856989950144925 0.023113902365991423 0.0046566790895668638 0.017649315880807464 -0.020580900064941024 -0.0085077409387579808 -0.0041009835567823458 -0.015552752121857494 -0.016237054813532926 -0.016593011839646871 -0.019999130062065509 -0.01807205002265113 -0.010276445565789704 -0.012071748181299691
leaf_weight=28 21 31 23 28 38 21 25 21 23 35 25 30 22 26 30 22 29 26 35 21 24 21 32 31 21 23 25 25
leaf_count=28 21 31 23 28 38 21 25 21 23 35 25 30 22 26 30 22 29 26 35 21 24 21 32 31 21 23 25 25
internal_value=5.19569e-11 0.00826656 0.00273779 0.0267517 0.0113993 0.0383306 -0.0107067 -0.00218817 -0.00401096 -0.00559595 0.0166182 -0.00717395 0.00040067 -0.00393809 -0.00990601 0.0154043 -0.00108074 0.0117181 -0.0159267 -0.00976028 -0.0111953 -0.0130871 -0.0173601 -0.013772 -0.0159149 -0.0144808 -0.0126852 -0.0144102
internal_weight=762 430 331 99 120 49 332 211 188 165 82 198 69 48 96 50 59 51 134 139 114 90 113 61 78 69 46 57
internal_count=762 430 331 99 120 49 332 211 188 165 82 198 69 48 96 50 59 51 134 139 114 90 113 61 78 69 46 57
is_linear=0
shrinkage=0.0160712


Tree=21
num_leaves=27
num_cat=0
split_feature=23 61 23 11 20 40 7 108 33 40 16 28 10 46 40 93 10 62 117 106 110 44 44 75 74 52
split_gain=252.792 164.72 52.9346 49.0828 26.4365 24.2463 22.9483 21.6877 12.6195 13.8295 12.1411 11.6956 7.13561 6.99385 6.66377 6.51626 5.57523 4.95475 4.70732 3.85626 3.09828 2.8762 2.13367 1.79676 1.33338 0.91272
threshold=283.69500000000005 1.0000000180025095e-35 54.150000000000006 92.500000000000014 1773.9000000000003 30.855000000000004 87.500000000000014 19.176250000000007 2.8452380952380958 43.691851851851858 23.393584826388892 6.5453061224489799 40.285000000000011 0.9353125000000001 29.291666666666668 1.2250000000000003 6.1234567901234582 9.5000000000000018 0.73125000000000007 0.49691358024691362 18.565937500000004 1.8050000000000004 1.1450000000000002 7.7750000000000012 8.5000000000000018 0.44097222222222227
decision_type=2 2 2 2 2 2 2 2 2 2 2 2 2 2 2 2 2 2 2 2 2 2 2 2 2 2
left_child=1 3 4 5 10 -1 16 8 -4 14 -3 17 -13 -12 -10 -11 -2 20 -19 -7 -8 -16 -18 25 -20 -24
right_child=6 2 7 -5 -6 19 11 -9 9 15 13 12 -14 -15 21 -17 22 18 24 -21 -22 -23 23 -25 -26 -27
leaf_value=0.030349230319328846 -0.0082742573037980025 0.024282988842182426 0.0046775036137955564 0.045283167039010863 0.00013514709614531652 0.016480775920395655 -0.015546776194295706 0.0086674744127467826 -0.0038309796637000459 -0.0051294900763960002 0.0054604886336446336 0.0038976198235782899 -0.0073600173838676789 0.017365669138232984 -0.016641826063938287 0.0063253027274476599 -0.020483430108293163 -0.011932722218393317 -0.0061317907875315407 0.0067412430352353069 -0.0080706444747620214 -0.009704398571055619 -0.015976105155836914 -0.019677719282937298 -0.00068702753491920344 -0.011877740094994923
leaf_weight=31 22 31 31 26 38 21 41 39 27 29 25 33 26 26 33 23 34 29 26 21 22 29 32 21 21 25
leaf_count=31 22 31 31 26 38 21 41 39 27 29 25 33 26 26 33 23 34 29 26 21 22 29 32 21 21 25
internal_value=-8.78813e-12 0.00813371 0.00269379 0.0263217 0.0112161 0.0195683 -0.0105346 -0.002153 -0.00460648 -0.00664764 0.0163511 -0.00705866 -0.00106337 0.0115298 -0.0104949 -6.29471e-05 -0.0156708 -0.00960342 -0.00684083 0.011611 -0.0129361 -0.0133969 -0.0171236 -0.0156591 -0.00369902 -0.0141786
internal_weight=762 430 331 99 120 73 332 211 172 141 82 198 59 51 89 52 134 139 76 42 63 62 112 78 47 57
internal_count=762 430 331 99 120 73 332 211 172 141 82 198 59 51 89 52 134 139 76 42 63 62 112 78 47 57
is_linear=0
shrinkage=0.0160712


Tree=22
num_leaves=29
num_cat=0
split_feature=23 63 23 47 20 40 28 7 27 19 28 72 129 105 21 117 15 39 4 75 15 38 10 3 0 112 88 21
split_gain=244.732 159.711 48.1456 46.9025 28.78 23.0983 22.3773 22.2166 15.4916 13.1976 11.3227 10.3914 15.7547 8.26412 7.78472 6.99388 5.44382 4.80165 5.69957 4.57704 2.90066 2.15268 1.78561 1.73667 1.6272 1.17318 0.872702 0.834407
threshold=283.69500000000005 0.29166666666666669 54.150000000000006 3.7100000000000004 1693.8500000000001 33.714506172839513 6.245000000000001 87.500000000000014 15.071428571428573 707.67000000000007 6.5453061224489799 5.5000000000000009 96.750000000000014 1.1714285714285715 292.13533333333339 0.50997619047619069 34.957778468571441 115.87500000000001 16.881944444444446 6.4142857142857155 34.789373794444451 15.500000000000002 10.908979591836735 37.857142857142868 30.500000000000004 6.4230707908163263 1.4138775510204085 720.14166666666677
decision_type=2 2 2 2 2 2 2 2 2 2 2 2 2 2 2 2 2 2 2 2 2 2 2 2 2 2 2 2
left_child=1 3 4 5 9 -1 8 16 11 -3 17 12 -4 -7 -11 -12 -2 -9 21 -14 -6 -19 -13 26 25 -23 27 -18
right_child=7 2 6 -5 20 13 -8 10 -10 14 15 22 19 -15 -16 -17 23 18 -20 -21 -22 24 -24 -25 -26 -27 -28 -29
leaf_value=0.028898658827881906 -0.0079047813118828837 0.0077058366783757494 0.0056718544624213031 0.0464720027469065 0.0048361547643557302 0.01980878057791912 0.012949856823615718 -0.0030705621393254542 0.005083317623183042 0.029244520207511435 -0.0064865589813337277 -0.016267421358328624 -0.013148411081058829 0.006366385973393303 0.015971485694566825 0.0045815887057774314 -0.016235025901215814 -0.0081981582764067088 -0.003889087539160918 -0.0045846007513452008 -0.0033426290489701397 -0.015129983425062176 -0.0099666259135300066 -0.02037113159088446 -0.017565038340059694 -0.0099773192153919318 -0.018158343531441037 -0.012390791628324871
leaf_weight=39 21 26 32 21 21 21 22 25 37 21 30 21 27 27 25 29 35 21 24 40 24 21 26 27 23 25 26 25
leaf_count=39 21 26 32 21 21 21 22 25 37 21 30 21 27 27 25 29 35 21 24 40 24 21 26 27 23 25 26 25
internal_value=-6.14463e-11 0.00800299 0.00233059 0.0249152 0.0105565 0.0197118 -0.0023642 -0.0103653 -0.00420523 0.016858 -0.00694522 -0.00655918 -0.00360497 0.0122474 0.0220309 -0.00104628 -0.0154189 -0.00944908 -0.0108479 -0.00803569 0.000474137 -0.0127036 -0.0127819 -0.0168153 -0.0140748 -0.0123296 -0.015699 -0.0146333
internal_weight=762 430 322 108 117 87 205 332 183 72 198 146 99 48 46 59 134 139 114 67 45 90 47 113 69 46 86 60
internal_count=762 430 322 108 117 87 205 332 183 72 198 146 99 48 46 59 134 139 114 67 45 90 47 113 69 46 86 60
is_linear=0
shrinkage=0.0160712


Tree=23
num_leaves=29
num_cat=0
split_feature=23 63 23 47 20 40 103 7 19 33 28 106 9 44 45 21 10 28 62 117 110 15 130 44 75 129 74 52
split_gain=236.929 154.619 46.6105 45.407 27.8624 22.4151 21.7727 21.5083 12.7768 11.1628 10.9617 10.8242 10.1732 11.0211 8.92432 7.53652 6.86575 5.31789 4.72383 4.49312 2.95377 2.80817 2.27509 1.9126 1.70809 1.51374 1.29347 0.868918
threshold=283.69500000000005 0.29166666666666669 54.150000000000006 3.7100000000000004 1693.8500000000001 29.510000000000002 1.5000000000000002 87.500000000000014 707.67000000000007 2.8452380952380958 6.5453061224489799 2.3437500000000004 85.225000000000009 2.2250000000000005 2.2260714285714291 292.13533333333339 40.285000000000011 2.1020408163265309 9.5000000000000018 0.73125000000000007 18.565937500000004 34.789373794444451 93.928888888888906 1.1450000000000002 7.7750000000000012 108.79861111111113 8.5000000000000018 0.44097222222222227
decision_type=2 2 2 2 2 2 2 2 2 2 2 2 2 2 2 2 2 2 2 2 2 2 2 2 2 2 2 2
left_child=1 3 4 5 8 -1 -4 17 -3 -8 18 12 13 25 -7 -10 -12 -2 20 -20 -9 -6 -15 -19 27 -11 -21 -25
right_child=7 2 6 -5 21 14 9 10 15 11 16 -13 -14 22 -16 -17 -18 23 19 26 -22 -23 -24 24 -26 -27 -28 -29
leaf_value=0.029579923117518579 -0.007744399814542397 0.0075819943814329216 0.012407107300213504 0.045725141036668589 0.0047584318320841503 0.0061408618101711741 0.0045962076813306106 -0.015100378786915013 0.028774525359084323 -0.016621444222891375 0.0038368122754822557 0.0047143395001400645 0.0025216996199753888 -0.0006463221650050378 0.019332731994959627 0.015714804093400994 -0.0072059006232204894 -0.019672587867234026 -0.011574469627160886 -0.0059263644969290491 -0.0078006862146359178 -0.0032889088669323459 -0.0075737276456617373 -0.015461029796405394 -0.019068899795730142 -0.011490324529024936 -0.00056371171823387195 -0.011462217039927827
leaf_weight=34 21 26 23 21 21 26 31 41 21 33 33 21 21 25 27 25 26 35 29 26 22 24 24 32 21 27 21 25
leaf_count=34 21 26 23 21 21 26 31 41 21 33 33 21 21 25 27 25 26 35 29 26 22 24 24 32 21 27 21 25
internal_value=3.21546e-11 0.00787437 0.00229313 0.0245147 0.0103868 0.019395 -0.0023262 -0.0101987 0.016587 -0.0041881 -0.0068336 -0.0059915 -0.00772091 -0.00969426 0.0128612 0.0216769 -0.00102947 -0.0151711 -0.00929722 -0.00659978 -0.0125513 0.000466517 -0.00403934 -0.0165513 -0.0151507 -0.0143124 -0.00353029 -0.0137072
internal_weight=762 430 322 108 117 87 205 332 72 182 198 151 130 109 53 46 59 134 139 76 63 45 49 113 78 60 47 57
internal_count=762 430 322 108 117 87 205 332 72 182 198 151 130 109 53 46 59 134 139 76 63 45 49 113 78 60 47 57
is_linear=0
shrinkage=0.0160712


Tree=24
num_leaves=29
num_cat=0
split_feature=23 61 23 129 20 85 7 103 94 58 38 128 28 129 63 45 4 117 15 37 4 74 20 15 15 45 88 21
split_gain=229.375 149.99 47.9813 45.4394 25.0731 24.2752 20.8225 20.3384 12.0867 15.1937 10.6248 10.7475 10.6122 9.70536 8.78591 8.26621 7.25609 6.72935 5.18502 4.61504 5.70055 2.92646 2.96698 1.8112 1.64734 1.41411 0.847092 0.887781
threshold=283.69500000000005 1.0000000180025095e-35 54.150000000000006 120.25000000000001 879.32000000000016 2.5000000000000004 87.500000000000014 1.5000000000000002 3.2430555555555558 1.6795061728395062 61.500000000000007 181.00000000000003 6.5453061224489799 93.300000000000011 1.6333333333333335 2.2260714285714291 9.5902777777777803 0.50997619047619069 34.957778468571441 130.00000000000003 16.881944444444446 4.5000000000000009 568.75000000000011 52.361618888888898 87.341604761904776 2.1587500000000008 1.4138775510204085 720.14166666666677
decision_type=2 2 2 2 2 2 2 2 2 2 2 2 2 2 2 2 2 2 2 2 2 2 2 2 2 2 2 2
left_child=1 3 5 4 -1 13 18 -4 9 10 -9 -12 19 16 -11 -5 -3 -14 -2 -8 21 -21 -23 -16 26 -24 27 -20
right_child=6 2 7 15 -6 -7 12 8 -10 14 11 -13 17 -15 23 -17 -18 -19 24 20 -22 22 25 -25 -26 -27 -28 -29
leaf_value=0.02528940735538196 -0.0075939511491429634 0.0076310525959581614 0.012207709929438077 0.0085326865574876423 0.048325073922653415 0.020704307789943477 -0.0025713062519504091 0.0099626221669708998 0.0071116170493929253 -0.003040239993822465 -0.012010349150277816 0.0032521490339646759 -0.006349323647779688 0.012662341132897667 -0.0099285634090922406 0.021696969625497952 -0.0047611371078068055 0.004507490986679975 -0.015743854250383452 -0.017134512583835918 -0.0036545752026195407 -0.0059165133249187568 -0.015920507375988768 -0.015528412290032718 -0.019671014831830928 -0.010158222926255591 -0.017593235265504322 -0.011730673802694606
leaf_weight=26 21 23 23 28 23 41 23 21 23 35 22 26 30 30 26 22 26 29 35 24 25 23 22 35 28 22 26 24
leaf_count=26 21 23 23 28 23 41 23 21 23 35 22 26 30 30 26 22 26 29 35 24 25 23 22 35 28 22 26 24
internal_value=-4.41954e-14 0.00774782 0.00255684 0.0251035 0.0361021 0.0106706 -0.0100348 -0.00205762 -0.00380285 -0.00532426 0.000428163 -0.00374316 -0.00672377 0.00546323 -0.00945881 0.014325 0.0010556 -0.00101292 -0.0149273 -0.0091478 -0.0104518 -0.0123191 -0.0105942 -0.0131416 -0.0162901 -0.0130394 -0.0151764 -0.0141114
internal_weight=762 430 331 99 49 120 332 211 188 165 69 48 198 79 96 50 49 59 134 139 116 91 67 61 113 44 85 59
internal_count=762 430 331 99 49 120 332 211 188 165 69 48 198 79 96 50 49 59 134 139 116 91 67 61 113 44 85 59
is_linear=0
shrinkage=0.0160712


Tree=25
num_leaves=30
num_cat=0
split_feature=23 61 23 11 20 105 7 28 57 110 128 18 16 28 106 46 10 28 37 4 74 20 15 27 115 45 41 108 43
split_gain=222.062 145.208 46.4515 44.4995 23.8104 21.989 20.1586 19.9399 13.4011 14.1232 12.5704 11.6117 11.5846 10.2738 9.92045 6.78693 6.6061 5.0619 4.46789 5.51879 2.83315 2.87238 1.96937 1.84873 1.61563 1.36902 1.2191 0.516483 0.37269
threshold=283.69500000000005 1.0000000180025095e-35 54.150000000000006 92.500000000000014 1773.9000000000003 2.4722222222222228 87.500000000000014 6.5453061224489799 2.7083333333333335 13.3025 181.00000000000003 54.150000000000006 23.393584826388892 6.5453061224489799 1.5590277777777779 0.9353125000000001 40.285000000000011 2.1020408163265309 130.00000000000003 16.881944444444446 4.5000000000000009 568.75000000000011 52.361618888888898 8.3750000000000018 1.4905000000000002 2.1587500000000008 140.00000000000003 16.695000000000004 2.1850000000000005
decision_type=2 2 2 2 2 2 2 2 2 2 2 2 2 2 2 2 2 2 2 2 2 2 2 2 2 2 2 2 2
left_child=1 3 4 5 12 11 17 8 14 -10 24 -1 -3 18 22 -14 -15 -2 -8 20 -20 -22 -4 26 -11 -23 -19 -28 -25
right_child=6 2 7 -5 -6 -7 13 -9 9 10 -12 -13 15 16 -16 -17 -18 23 19 -21 21 25 -24 28 -26 -27 27 -29 -30
leaf_value=0.018997825649816762 -0.0074416364300928873 0.023120386978540266 -0.0097637625553880017 0.042754528882914485 -1.704598351152939e-05 0.029134444684733498 -0.0025299821656355487 0.01245612685211576 0.0085370709089831326 -0.012545941101215199 0.0051863829919076045 0.0024686742720310697 0.0046840634308750392 0.0037767318743992823 -0.0011565437681695081 0.016411803709523654 -0.0070551600071899027 -0.011728088762650269 -0.016859139727279478 -0.0035958417128080424 -0.0058214275367552814 -0.015664644991668201 -0.015853892156487977 -0.020087255870864306 -0.0062417968822718753 -0.009994967573413404 -0.014323012285622144 -0.017887380808892673 -0.017129060194903394
leaf_weight=23 21 31 32 26 38 29 23 22 35 21 24 21 25 33 32 26 26 27 24 25 23 22 24 22 21 22 21 21 22
leaf_count=23 21 31 32 26 38 29 23 22 35 21 24 21 25 33 32 26 26 27 24 25 23 22 24 22 21 22 21 21 22
internal_value=7.88397e-12 0.00762331 0.00251575 0.0247001 0.0104991 0.0182697 -0.00987356 -0.00202455 -0.00371013 0.000284437 -0.00409196 0.0111089 0.0153724 -0.00661571 -0.00829481 0.0106629 -0.000996644 -0.0146874 -0.00900079 -0.0102838 -0.0121211 -0.0104239 -0.0123738 -0.0160339 -0.00939387 -0.0128298 -0.0143924 -0.0161052 -0.0186082
internal_weight=762 430 331 99 120 73 332 211 189 101 66 44 82 198 88 51 59 134 139 116 91 67 56 113 42 44 69 42 44
internal_count=762 430 331 99 120 73 332 211 189 101 66 44 82 198 88 51 59 134 139 116 91 67 56 113 42 44 69 42 44
is_linear=0
shrinkage=0.0160712


Tree=26
num_leaves=28
num_cat=0
split_feature=23 61 11 23 9 87 115 40 7 46 44 45 28 117 19 104 91 15 4 39 4 38 15 0 112 88 21
split_gain=214.981 140.644 50.0539 45.4209 26.8002 24.7677 24.2497 20.9642 19.5159 17.4001 14.3479 13.5686 9.94626 6.47483 6.15415 8.27825 6.08603 4.94575 4.67971 4.36683 5.15996 1.95675 1.56981 1.50487 1.11084 0.804826 0.847166
threshold=283.69500000000005 1.5000000000000002 92.500000000000014 54.150000000000006 61.725000000000009 1.0555555555555558 5.4665000000000008 26.325000000000003 87.500000000000014 0.59750000000000003 1.8050000000000004 3.3119047619047621 6.5453061224489799 0.50997619047619069 1223.1650000000002 4.5000000000000009 2.5000000000000004 34.957778468571441 13.577777777777779 115.87500000000001 16.881944444444446 15.500000000000002 87.341604761904776 30.500000000000004 6.4230707908163263 1.4138775510204085 720.14166666666677
decision_type=2 2 2 2 2 2 2 2 2 2 2 2 2 2 2 2 2 2 2 2 2 2 2 2 2 2 2
left_child=1 2 4 5 -1 11 -6 9 17 -5 -9 16 19 -14 18 -16 -3 -2 -12 -10 21 -21 25 24 -23 26 -19
right_child=8 3 -4 7 6 -7 -8 10 12 -11 14 -13 13 -15 15 -17 -18 22 -20 20 -22 23 -24 -25 -26 -27 -28
leaf_value=0.0025594983973744006 -0.0072892069801107377 0.013898252443949427 0.041729855927608812 -0.0013232471606893586 0.036546378319155387 0.020154760885084656 0.014923864420559136 -0.014176122496952706 -0.0027732771956910829 0.017019669194076763 0.006459195426527984 -0.0056518832417942599 -0.0062151352140619176 0.0044343815607301423 -0.011889899537492761 -0.00023702332282308906 0.0029099723913019976 -0.015251746451252138 -0.0038318181402872478 -0.0076602719384678422 -0.0035689069202078615 -0.014309737743158104 -0.019082741318771801 -0.01661957592460624 -0.0092958510180629408 -0.017050931548845273 -0.01133143977603223
leaf_weight=24 21 30 28 34 21 41 37 38 25 22 25 23 30 29 31 32 23 35 21 21 24 21 28 23 25 26 24
leaf_count=24 21 30 28 34 21 41 37 38 25 22 25 23 30 29 31 32 23 35 21 21 24 21 28 23 25 26 24
internal_value=-5.1193e-12 0.00750079 0.0231775 0.00211193 0.0168425 0.0100874 0.0227527 -0.00248478 -0.00971488 0.0058829 -0.00567247 0.00465636 -0.00650939 -0.000980627 -0.00270789 -0.00597098 0.00912975 -0.0144513 0.00176112 -0.00885613 -0.0101901 -0.0119557 -0.0157824 -0.0132631 -0.0115848 -0.0146952 -0.013657
internal_weight=762 430 110 320 82 117 58 203 332 56 147 76 198 59 109 63 53 134 46 139 114 90 113 69 46 85 59
internal_count=762 430 110 320 82 117 58 203 332 56 147 76 198 59 109 63 53 134 46 139 114 90 113 69 46 85 59
is_linear=0
shrinkage=0.0160712


Tree=27
num_leaves=28
num_cat=0
split_feature=23 63 47 23 20 28 40 7 19 110 1 63 28 105 91 10 74 28 64 40 15 42 21 44 75 45 52
split_gain=208.127 136.331 41.4288 40.7357 25.191 20.4634 20.3029 18.8936 14.0507 14.9603 12.4161 10.2981 9.62913 8.01478 7.28359 6.35627 5.97758 4.81818 4.26675 3.78804 2.5561 2.29969 1.84703 1.82565 1.56261 1.22863 0.81282
threshold=283.69500000000005 0.29166666666666669 3.7100000000000004 54.150000000000006 1693.8500000000001 6.245000000000001 29.510000000000002 87.500000000000014 1223.1650000000002 15.105937500000001 55.500000000000007 2.4500000000000006 6.5453061224489799 1.1714285714285715 6.5000000000000009 40.285000000000011 8.5000000000000018 2.1020408163265309 3.6643518518518521 30.312500000000004 34.789373794444451 0.94000000000000006 578.54500000000019 1.1450000000000002 7.7750000000000012 2.1741666666666672 0.44097222222222227
decision_type=2 2 2 2 2 2 2 2 2 2 2 2 2 2 2 2 2 2 2 2 2 2 2 2 2 2 2
left_child=1 2 6 4 10 8 -1 17 9 -5 16 -11 18 -8 19 -14 -3 -2 25 -10 -6 -21 -20 -19 26 -9 -25
right_child=7 3 -4 5 20 -7 13 12 14 11 -12 -13 15 -15 -16 -17 -18 23 22 21 -22 -23 -24 24 -26 -27 -28
leaf_value=0.027808409307333845 -0.0071499320859273003 0.013813179699812996 0.043265498198412425 0.010259124802910823 0.0043679047366907715 0.012465568687681889 0.019315608049519754 -0.013513857957068255 -0.0055162557724920593 0.0047462471636264469 0.0052009909660702429 -0.009650273314900629 0.0037173786724901937 0.0066320530272505635 -6.0527777970600516e-05 -0.0069077173040696773 0.024870612362891571 -0.018582356884996005 -0.0021409968349237257 -0.0089361967181092964 -0.0033097642846703504 -0.015919484347714275 -0.0077805054713012585 -0.014480058295002589 -0.017912066122714957 -0.0093907379480295018 -0.010612482354185515
leaf_weight=34 21 23 21 29 21 22 22 35 27 21 21 33 33 31 23 26 28 35 24 21 24 29 40 32 21 40 25
leaf_count=34 21 23 21 29 21 22 22 35 27 21 21 33 33 31 23 26 28 35 24 21 24 29 40 32 21 40 25
internal_value=6.04004e-12 0.00738024 0.0230055 0.00213946 0.00970592 -0.00217896 0.0181152 -0.00955875 -0.00393951 0.000948516 0.0156014 -0.00405163 -0.00640478 0.0118969 -0.00799656 -0.000964867 0.0198839 -0.0142191 -0.0087138 -0.0103671 0.000273148 -0.0129865 -0.00566569 -0.0155328 -0.0141645 -0.0113149 -0.0127838
internal_weight=762 430 108 322 117 205 87 332 183 83 72 54 198 53 100 59 51 134 139 77 45 50 64 113 78 75 57
internal_count=762 430 108 322 117 205 87 332 183 83 72 54 198 53 100 59 51 134 139 77 45 50 64 113 78 75 57
is_linear=0
shrinkage=0.0160712


Tree=28
num_leaves=28
num_cat=0
split_feature=23 61 11 23 9 87 115 103 7 45 33 28 108 40 117 91 15 9 62 117 110 57 112 15 74 88 21
split_gain=201.491 132.121 47.2197 42.5474 25.534 23.7267 23.3256 20.2469 18.2912 12.8453 11.1072 9.32211 8.73756 12.2717 6.22993 5.7745 4.71053 4.30117 4.15097 4.136 2.79697 2.75536 3.76681 1.49122 1.27534 0.7607 0.82181
threshold=283.69500000000005 1.5000000000000002 92.500000000000014 54.150000000000006 61.725000000000009 1.0555555555555558 5.4665000000000008 1.5000000000000002 87.500000000000014 3.3119047619047621 2.8452380952380958 6.5453061224489799 21.307500000000005 43.691851851851858 0.50997619047619069 2.5000000000000004 34.957778468571441 62.45000000000001 9.5000000000000018 0.73125000000000007 18.565937500000004 3.0714285714285716 5.4327343749937507 87.341604761904776 8.5000000000000018 1.4138775510204085 720.14166666666677
decision_type=2 2 2 2 2 2 2 2 2 2 2 2 2 2 2 2 2 2 2 2 2 2 2 2 2 2 2
left_child=1 2 4 5 -1 9 -6 -5 16 15 -9 18 13 21 -13 -3 -2 -15 20 -20 -10 22 -12 25 -21 26 -18
right_child=8 3 -4 7 6 -7 -8 10 11 -11 12 14 -14 17 -16 -17 23 -19 19 24 -22 -23 -24 -25 -26 -27 -28
leaf_value=0.0023613457644134305 -0.0070008262151149761 0.01343937325895519 0.040475375640105504 0.011788529245210891 0.035600088105727005 0.019611182090472423 0.014393568798009288 0.0045277746082730379 -0.014104653450036371 -0.0055877261726059576 -0.010093154463364926 -0.0060839219105467048 0.0026218779982895234 -0.0057135822084114912 0.0043622549100789752 0.002736020554617431 -0.014791317519725858 0.0041524381247130832 -0.010818065913704288 -0.0054794101638000609 -0.0070013578174298857 -0.0078548785756717646 -0.019168539420759811 -0.018506258352620999 -0.00015446021142786993 -0.01652019940084528 -0.010930126085336144
leaf_weight=24 21 30 28 23 21 41 37 31 41 23 27 30 25 25 29 23 35 21 29 26 22 30 21 28 21 26 24
leaf_count=24 21 30 28 23 21 41 37 31 41 23 27 30 25 25 29 23 35 21 29 26 22 30 21 28 21 26 24
internal_value=-6.66859e-12 0.00726163 0.0224559 0.00203861 0.0163029 0.0097577 0.0220718 -0.00241032 -0.00940513 0.004442 -0.00422462 -0.00630184 -0.00604559 -0.00779306 -0.00094936 0.00879452 -0.0139906 -0.00120953 -0.00857376 -0.00604516 -0.0116241 -0.0116757 -0.0140636 -0.0152896 -0.00310018 -0.0142299 -0.0132207
internal_weight=762 430 110 320 82 117 58 203 332 76 180 198 149 124 59 53 134 46 139 76 63 78 48 113 47 85 59
internal_count=762 430 110 320 82 117 58 203 332 76 180 198 149 124 59 53 134 46 139 76 63 78 48 113 47 85 59
is_linear=0
shrinkage=0.0160712


Tree=29
num_leaves=28
num_cat=0
split_feature=23 63 47 19 4 40 7 7 23 18 28 121 105 10 127 75 106 28 37 4 1 74 20 44 75 45 52
split_gain=195.066 128.019 39.1346 38.765 37.1416 19.1581 17.708 16.6191 15.8829 15.1314 9.02489 8.91647 7.38544 6.12598 6.06181 8.04076 5.74812 4.58618 4.10565 5.12425 3.47249 2.61862 2.71617 1.76289 1.48704 1.26234 0.775718
threshold=283.69500000000005 0.29166666666666669 3.7100000000000004 1223.1650000000002 13.460740740740741 33.714506172839513 87.500000000000014 92.500000000000014 54.150000000000006 54.150000000000006 6.5453061224489799 0.00016632701149415003 1.1714285714285715 39.875000000000007 221.00000000000003 8.9285714285714306 0.74537037037037057 2.1020408163265309 130.00000000000003 16.881944444444446 37.500000000000007 4.5000000000000009 568.75000000000011 1.1450000000000002 7.7750000000000012 2.1587500000000008 0.44097222222222227
decision_type=2 2 2 2 2 2 2 2 2 2 2 2 2 2 2 2 2 2 2 2 2 2 2 2 2 2 2
left_child=1 2 5 4 8 -1 17 -6 -3 11 18 -5 -7 -12 -11 20 -9 -2 -8 21 -16 -20 -23 -19 26 -24 -25
right_child=6 3 -4 9 7 12 10 16 -10 14 13 -13 -14 -15 15 -17 -18 23 19 -21 -22 22 25 24 -26 -27 -28
leaf_value=0.025900141059786518 -0.0068688609425665908 0.02759385636700401 0.041977442217100036 -0.0015096491368258018 -0.0076452660212619388 0.017883570269715297 -0.0022330267402303179 0.0022113377663035357 0.011132187525947841 0.00085406928998672165 0.0041574407193937062 0.010881174675830512 0.0051758789876949736 -0.0062012171652307121 -0.00046344789683561681 -0.015506928294214193 0.01333433380092596 -0.018044095437948177 -0.015991409292281107 -0.0032214111130506188 -0.0084004469906868873 -0.0053290303403696936 -0.01486631290249877 -0.014013035399087156 -0.017358669495865672 -0.0094220298829464783 -0.010234758270610362
leaf_weight=39 21 24 21 40 34 21 23 28 41 22 30 24 27 29 24 29 21 35 24 25 35 23 22 32 21 22 25
leaf_count=39 21 24 21 40 34 21 23 28 41 22 30 24 27 29 24 29 21 35 24 25 35 23 22 32 21 22 25
internal_value=-4.87131e-12 0.00714493 0.0222864 0.00206641 0.00811265 0.0175334 -0.00925397 0.000987945 0.0172103 -0.00307637 -0.00620057 0.00313691 0.0107355 -0.000934103 -0.00669136 -0.00857772 0.00697834 -0.0137657 -0.00843597 -0.00966586 -0.00517184 -0.0114363 -0.00980465 -0.0150474 -0.0137028 -0.0121442 -0.0123559
internal_weight=762 430 108 322 148 87 332 83 65 174 198 64 48 59 110 88 49 134 139 116 59 91 67 113 78 44 57
internal_count=762 430 108 322 148 87 332 83 65 174 198 64 48 59 110 88 49 134 139 116 59 91 67 113 78 44 57
is_linear=0
shrinkage=0.0160712


Tree=30
num_leaves=29
num_cat=0
split_feature=23 61 23 129 20 87 28 7 27 106 129 28 33 4 45 8 117 15 37 4 110 74 20 19 75 45 34 64
split_gain=188.847 124.103 39.4152 38.6694 24.1828 21.2116 18.0377 17.1434 11.9168 10.2802 10.1375 8.73714 7.78711 7.60936 7.39047 7.33356 6.00146 4.48651 3.97474 4.96087 2.87125 2.53513 2.62957 2.26726 1.42075 1.22209 0.844592 1.14827
threshold=283.69500000000005 1.0000000180025095e-35 54.150000000000006 120.25000000000001 879.32000000000016 1.0555555555555558 6.5453061224489799 87.500000000000014 15.071428571428573 2.3437500000000004 93.300000000000011 6.5453061224489799 2.8166666666666669 9.5902777777777803 2.2260714285714291 76.500000000000014 0.50997619047619069 34.957778468571441 130.00000000000003 16.881944444444446 13.447619047600002 4.5000000000000009 568.75000000000011 1102.5000000000002 9.2916666666666696 2.1587500000000008 0.94874999999999998 4.0808163265306137
decision_type=2 2 2 2 2 2 2 2 2 2 2 2 2 2 2 2 2 2 2 2 2 2 2 2 2 2 2 2
left_child=1 3 5 4 -1 10 8 17 9 12 13 18 -4 -3 -5 20 -13 -2 -9 21 -14 -20 -23 -17 26 -24 27 -19
right_child=7 2 6 14 -6 -7 -8 11 -10 -11 -12 16 15 -15 -16 23 -18 24 19 -21 -22 22 25 -25 -26 -27 -28 -29
leaf_value=0.022344392288182195 -0.0067229841503598838 0.0068391776758796787 0.0018262211254230394 0.0073970616454991428 0.044967398774460654 0.019041409325871249 0.011898655040604625 -0.0021971392490170247 0.0047021634254586732 0.0049706547828277502 0.011958230273358008 -0.0059586244374926359 -0.0099955968042267137 -0.0059696747591394513 0.019844503150576637 -0.001054116837207484 0.0042942198181063181 -0.014911425449800141 -0.015734407494226641 -0.003169639149749466 -0.017695047304298654 -0.0052433861637921821 -0.014627393039691202 -0.0075137916942339192 -0.01750239857337613 -0.009270606152712026 -0.016360276460364684 -0.010348624083849466
leaf_weight=26 21 23 21 28 23 41 22 23 37 21 31 30 29 25 22 23 29 28 24 25 22 23 22 36 35 22 21 29
leaf_count=26 21 23 21 28 23 41 22 23 37 21 31 30 29 25 22 23 29 28 24 25 22 23 22 36 35 22 21 29
internal_value=3.78607e-12 0.0070301 0.00230829 0.0228172 0.0329634 0.00966218 -0.00187403 -0.00910525 -0.0034772 -0.00546822 0.00479449 -0.00610092 -0.00714163 0.0001679 0.0128739 -0.00885368 -0.000919091 -0.0135445 -0.00830039 -0.00951052 -0.0133169 -0.0112525 -0.00964707 -0.00499561 -0.0148122 -0.011949 -0.0136051 -0.01259
internal_weight=762 430 331 99 49 120 211 332 189 152 79 198 131 48 50 110 59 134 139 116 51 91 67 59 113 44 78 57
internal_count=762 430 331 99 49 120 211 332 189 152 79 198 131 48 50 110 59 134 139 116 51 91 67 59 113 44 78 57
is_linear=0
shrinkage=0.0160712


Tree=31
num_leaves=28
num_cat=0
split_feature=23 61 11 23 9 115 87 40 7 46 44 45 28 10 74 104 91 75 10 39 4 44 38 75 0 112 52
split_gain=182.826 120.334 43.8732 38.6214 23.89 21.9395 21.8166 19.1275 16.5968 16.0494 12.6955 12.0281 8.45856 5.90319 5.65721 8.374 5.55837 4.87674 4.38037 3.88825 4.64355 1.82035 1.77682 1.40396 1.36983 1.05797 0.742638
threshold=283.69500000000005 1.5000000000000002 92.500000000000014 54.150000000000006 61.725000000000009 5.4665000000000008 1.0555555555555558 26.325000000000003 87.500000000000014 0.59750000000000003 1.8050000000000004 3.3119047619047621 6.5453061224489799 40.285000000000011 11.500000000000002 4.5000000000000009 2.5000000000000004 9.3666666666666689 6.1234567901234582 115.87500000000001 16.881944444444446 1.1450000000000002 15.500000000000002 7.7750000000000012 30.500000000000004 6.4230707908163263 0.44097222222222227
decision_type=2 2 2 2 2 2 2 2 2 2 2 2 2 2 2 2 2 2 2 2 2 2 2 2 2 2 2
left_child=1 2 4 6 -1 -6 11 9 18 -5 -9 16 19 -14 15 -12 -3 -16 -2 -10 22 -20 -21 26 25 -24 -23
right_child=8 3 -4 7 5 -7 -8 10 12 -11 14 -13 13 -15 17 -17 -18 -19 21 20 -22 23 24 -25 -26 -27 -28
leaf_value=0.0020016067422963441 -0.0067706491345304884 0.012958496444336252 0.038787046059105219 -0.001234297397661176 0.034187127917374355 0.013620363358275314 0.018735390636988116 -0.013350075686239613 -0.0024271370374228519 0.016382324815091678 -0.012137354657528653 -0.0055158423698942098 0.0036079623633096963 -0.0066314475207939266 0.0060939183939482337 0.00069626077131763604 0.0024573603701316931 -0.0034156547324395996 -0.017717949485708592 -0.0070074853218018264 -0.0031446094048054774 -0.01357459602656313 -0.013404575217582091 -0.016814198224503869 -0.015548844584308556 -0.0085114719765809806 -0.009877757919746568
leaf_weight=24 22 30 28 34 21 37 41 38 25 22 29 23 33 26 26 24 23 30 34 21 24 32 21 21 23 25 25
leaf_count=24 22 30 28 34 21 37 41 38 25 22 29 23 33 26 26 24 23 30 34 21 24 32 21 21 23 25 25
internal_value=1.41118e-12 0.00691712 0.0214178 0.00193251 0.0154868 0.021067 0.00928684 -0.0023062 -0.00895892 0.00568652 -0.00535105 0.0041896 -0.00600287 -0.00090432 -0.00256239 -0.00632591 0.0084014 0.000999504 -0.0133268 -0.008167 -0.00942574 -0.0146146 -0.0111007 -0.0132619 -0.0123465 -0.0107453 -0.0119532
internal_weight=762 430 110 320 82 58 117 203 332 56 147 76 198 59 109 53 53 56 134 139 114 112 90 78 69 46 57
internal_count=762 430 110 320 82 58 117 203 332 56 147 76 198 59 109 53 53 56 134 139 114 112 90 78 69 46 57
is_linear=0
shrinkage=0.0160712


Tree=32
num_leaves=27
num_cat=0
split_feature=33 105 46 4 129 57 7 21 88 27 37 85 63 63 19 104 33 2 108 63 76 108 75 82 130 106
split_gain=177.348 90.6116 42.5262 42.3434 37.7998 20.9911 20.7312 18.5004 16.8905 13.526 10.2801 8.43405 8.25924 8.09456 9.94417 5.67888 3.49623 3.14906 2.56692 1.44252 1.43151 1.13109 1.0722 0.895185 1.15738 0.611881
threshold=2.8452380952380958 0.82857142857142863 0.90156250000000016 3.367500000000001 120.25000000000001 2.4500000000000006 87.500000000000014 330.51205357142868 0.48489795918367357 15.763888888888891 130.00000000000003 2.5000000000000004 1.6333333333333335 5.4821428571428585 1223.1650000000002 4.5000000000000009 3.1180555555555558 35.500000000000007 18.518750000000004 4.7333333333333343 4.934240362811793 18.518750000000004 7.7750000000000012 0.43222222222222223 80.570000000000022 1.0306122448979593
decision_type=2 2 2 2 2 2 2 2 2 2 2 2 2 2 2 2 2 2 2 2 2 2 2 2 2 2
left_child=3 -2 6 4 -1 15 16 11 -7 13 -9 -5 -12 14 18 -4 -3 -16 -8 23 21 -15 -20 24 -18 -21
right_child=1 2 5 7 -6 8 9 10 -10 -11 12 -13 -14 20 17 -17 19 -19 22 25 -22 -23 -24 -25 -26 -27
leaf_value=0.036079373759861783 0.019921220647958315 -0.007772745158865153 -0.0083783466988134811 0.0080691994859245168 0.0087138098615405311 -0.00075078634173372284 0.0035017960529887819 0.012385892291893762 0.018174677168552103 0.0058455389674690354 0.004894127983016295 0.020220175926400692 -0.0068259183324203138 -0.010583279542920885 -0.012266186825249168 0.0021629407640863041 -0.016689109556954199 -0.0049219214423331511 -0.00067271968569236065 -0.014660478799373256 -0.008490166335028148 -0.015413978241458156 -0.0053557689460434991 -0.010890624480079934 -0.012065291622396052 -0.018292678365222498
leaf_weight=32 36 25 33 25 22 21 25 26 29 23 41 36 25 31 38 22 27 25 28 23 40 21 23 31 29 25
leaf_count=32 36 25 33 25 22 21 25 26 29 23 41 36 25 31 38 22 27 25 28 23 40 21 23 31 29 25
internal_value=-1.86603e-12 -0.00473504 -0.0064453 0.0126954 0.0249304 0.00268951 -0.00876209 0.00837713 0.010226 -0.00590776 0.00382657 0.0152403 0.000454716 -0.007078 -0.00463048 -0.00416183 -0.0132933 -0.0093518 -0.000716762 -0.0143157 -0.0107759 -0.0125341 -0.00278468 -0.0130817 -0.0142946 -0.0165522
internal_weight=762 555 519 207 54 105 414 153 50 254 92 61 66 231 139 55 160 63 76 135 92 52 51 87 56 48
internal_count=762 555 519 207 54 105 414 153 50 254 92 61 66 231 139 55 160 63 76 135 92 52 51 87 56 48
is_linear=0
shrinkage=0.0160712


Tree=33
num_leaves=28
num_cat=0
split_feature=23 61 11 23 9 115 87 103 7 45 33 28 108 40 117 91 28 9 62 117 110 57 112 44 75 74 5
split_gain=172.025 113.741 41.9114 36.2522 22.5715 20.7012 20.6812 18.2374 15.6259 11.4653 9.91883 7.95256 7.58527 11.1962 5.63227 5.24719 4.10273 3.92361 3.66526 3.78293 2.54168 2.40879 3.59247 1.63789 1.32188 1.22906 0.709223
threshold=283.69500000000005 1.5000000000000002 92.500000000000014 54.150000000000006 61.725000000000009 5.4665000000000008 1.0555555555555558 1.5000000000000002 87.500000000000014 3.3119047619047621 2.8452380952380958 6.5453061224489799 21.307500000000005 43.691851851851858 0.50997619047619069 2.5000000000000004 2.1020408163265309 62.45000000000001 9.5000000000000018 0.73125000000000007 18.565937500000004 3.0714285714285716 5.4327343749937507 1.1450000000000002 7.7750000000000012 8.5000000000000018 14.500000000000002
decision_type=2 2 2 2 2 2 2 2 2 2 2 2 2 2 2 2 2 2 2 2 2 2 2 2 2 2 2
left_child=1 2 4 6 -1 -6 9 -5 16 15 -9 18 13 21 -13 -3 -2 -15 20 -20 -10 22 -12 -18 26 -21 -25
right_child=8 3 -4 7 5 -7 -8 10 11 -11 12 14 -14 17 -16 -17 23 -19 19 25 -22 -23 -24 24 -26 -27 -28
leaf_value=0.0019028565129175037 -0.0064052515007127211 0.012565706435187944 0.037783972168071306 0.0112327458960643 0.033179156293053264 0.013201238864919539 0.018188160252698246 0.0043059715618883158 -0.013151348516899523 -0.0054497445151283673 -0.0093777716654790365 -0.0057603502466700863 0.002389956330099063 -0.0053273537159497847 0.0041721218120939433 0.0023627431091962246 -0.017029222238454864 0.0040956924503211473 -0.010108962372076676 -0.0050635059714774621 -0.0063799746612694126 -0.0074501078173798982 -0.018240651110302111 -0.0092275890467682503 -0.016291533396667394 0.00016393286807192637 -0.01294394380397873
leaf_weight=24 21 30 28 23 21 37 41 31 41 23 27 30 25 25 29 23 35 21 29 26 22 30 21 21 21 21 36
leaf_count=24 21 30 28 23 21 37 41 31 41 23 27 30 25 25 29 23 35 21 29 26 22 30 21 21 21 21 36
internal_value=-2.91874e-11 0.00670969 0.0208075 0.00186357 0.0150107 0.0204346 0.00898876 -0.00224307 -0.00869027 0.00402592 -0.00396498 -0.00582198 -0.00568579 -0.00731396 -0.000878288 0.00813801 -0.0129285 -0.00102553 -0.00792038 -0.00554432 -0.0107867 -0.0110225 -0.0132553 -0.0141408 -0.0128447 -0.00272784 -0.0115748
internal_weight=762 430 110 320 82 58 117 203 332 76 180 198 149 124 59 53 134 46 139 76 63 78 48 113 78 47 57
internal_count=762 430 110 320 82 58 117 203 332 76 180 198 149 124 59 53 134 46 139 76 63 78 48 113 78 47 57
is_linear=0
shrinkage=0.0160712


Tree=34
num_leaves=27
num_cat=0
split_feature=33 105 4 46 129 57 7 21 88 27 37 85 63 63 52 22 104 33 46 33 76 63 108 82 130 106
split_gain=166.893 85.5766 39.9567 39.8867 35.4768 19.7027 19.3917 17.3904 16.1132 12.7384 9.91646 8.01974 7.95288 7.63874 9.59129 7.25725 5.47041 3.28827 3.03929 1.96534 1.35747 1.35331 1.06727 0.862061 1.10189 0.59274
threshold=2.8452380952380958 0.82857142857142863 3.367500000000001 0.90156250000000016 120.25000000000001 2.4500000000000006 87.500000000000014 330.51205357142868 0.48489795918367357 15.763888888888891 130.00000000000003 2.5000000000000004 1.6333333333333335 5.4821428571428585 0.47437500000000005 629.88847222222239 4.5000000000000009 3.1180555555555558 0.46020408163265308 3.5277777777777781 4.934240362811793 4.7333333333333343 18.518750000000004 0.43222222222222223 80.570000000000022 1.0306122448979593
decision_type=2 2 2 2 2 2 2 2 2 2 2 2 2 2 2 2 2 2 2 2 2 2 2 2 2 2
left_child=2 -2 4 6 -1 16 17 11 -7 13 -9 -4 -12 14 15 18 -5 -3 -8 -20 22 23 -15 24 -19 -23
right_child=1 3 7 5 -6 8 9 10 -10 -11 12 -13 -14 20 -16 -17 -18 21 19 -21 -22 25 -24 -25 -26 -27
leaf_value=0.035001684142590681 0.01936807219758396 -0.0075276945453357016 0.007782079000546567 -0.0081847856167492367 0.0084903176479539273 -0.00082834605690267017 -0.0055600254350685399 0.012115371984077694 0.0176565400197135 0.005667395108149789 0.0047534145530907495 0.019630844275053658 -0.0067472146316865551 -0.010283665553068906 -0.013977448659107258 -0.010286143513038954 0.0021612104891251022 -0.016204494188980016 0.0043667295445246239 -0.0011577520446086568 -0.0082406746678258189 -0.014177415930084864 -0.014976105066212208 -0.010527686335317 -0.011692880124416861 -0.017752350971112954
leaf_weight=32 36 25 25 33 22 21 23 26 29 23 41 36 25 31 23 25 22 27 29 39 40 23 21 31 29 25
leaf_count=32 36 25 25 33 22 21 23 26 29 23 41 36 25 31 23 25 22 27 29 39 40 23 21 31 29 25
internal_value=-1.10488e-14 -0.00459336 0.0123155 -0.00625542 0.0242008 0.00259136 -0.00849917 0.00812073 0.00989289 -0.00573859 0.0037088 0.0147748 0.000397116 -0.00687425 -0.00449664 -0.00261682 -0.00404639 -0.0128816 -0.000509865 0.00119828 -0.0104665 -0.0138731 -0.0121787 -0.0126779 -0.0138681 -0.0160394
internal_weight=762 555 207 519 54 105 414 153 50 254 92 61 66 231 139 116 55 160 91 68 92 135 52 87 56 48
internal_count=762 555 207 519 54 105 414 153 50 254 92 61 66 231 139 116 55 160 91 68 92 135 52 87 56 48
is_linear=0
shrinkage=0.0160712


Tree=35
num_leaves=27
num_cat=0
split_feature=23 63 47 19 4 40 7 23 7 18 121 28 105 106 127 75 10 28 37 4 1 21 44 112 3 112
split_gain=161.853 107.617 34.4623 33.1237 34.5195 16.2121 14.7154 13.6097 13.3618 12.4881 8.32145 7.4456 6.66929 5.4944 5.46723 7.13932 5.46109 3.82868 3.5096 4.47899 3.18689 2.24541 1.58001 1.37597 1.25482 0.607079
threshold=283.69500000000005 0.29166666666666669 3.7100000000000004 1223.1650000000002 13.460740740740741 33.714506172839513 87.500000000000014 54.150000000000006 92.500000000000014 54.150000000000006 0.00016632701149415003 6.5453061224489799 1.1714285714285715 0.74537037037037057 221.00000000000003 8.9285714285714306 40.285000000000011 2.1020408163265309 130.00000000000003 16.881944444444446 37.500000000000007 578.54500000000019 1.1450000000000002 5.9789000000000012 22.472222222222225 20.321125925937334
decision_type=2 2 2 2 2 2 2 2 2 2 2 2 2 2 2 2 2 2 2 2 2 2 2 2 2 2
left_child=1 2 5 4 7 -1 17 -3 -6 10 -5 18 -7 -10 -11 20 -13 -2 -8 21 -16 -20 -19 -23 -24 -26
right_child=6 3 -4 9 8 12 11 -9 13 14 -12 16 -14 -15 15 -17 -18 22 19 -21 -22 23 24 -25 25 -27
leaf_value=0.023627257154644178 -0.0062407062157003954 0.025823453791512789 0.038869112838516962 -0.0017461485063424819 -0.0071686473710596121 0.01646987865207036 -0.0019413314135694891 0.010585299966364708 0.001283163336264926 0.00097986475493377608 0.01022410400222654 0.0034776031290869643 0.0043940163833116165 0.012157907354471413 -0.00025752569074246939 -0.014506677536938052 -0.0063709221458739668 -0.01655036431305491 -0.0066819587469550447 -0.0027884252158461515 -0.0078611195162928832 -0.015394099558954894 -0.0097164633955523633 -0.010411911113782929 -0.015736690346411772 -0.012194948116122917
leaf_weight=39 21 24 21 40 34 21 23 41 28 22 24 33 27 21 24 29 26 35 28 25 35 22 28 41 25 25
leaf_count=39 21 24 21 40 34 21 23 41 28 22 24 33 27 21 24 29 26 35 28 25 35 22 28 41 25 25
internal_value=-3.55773e-12 0.0065083 0.0203909 0.00185201 0.00744102 0.0159307 -0.00842942 0.0162117 0.000572417 -0.00290186 0.0027427 -0.00564595 0.00967721 0.00594377 -0.00618597 -0.00797743 -0.000862425 -0.0125423 -0.00767636 -0.00881348 -0.00476813 -0.0104687 -0.0137134 -0.0121517 -0.0124404 -0.0139658
internal_weight=762 430 108 322 148 87 332 65 83 174 64 198 48 49 110 88 59 134 139 116 59 91 113 63 78 50
internal_count=762 430 108 322 148 87 332 65 83 174 64 198 48 49 110 88 59 134 139 116 59 91 113 63 78 50
is_linear=0
shrinkage=0.0160712


Tree=36
num_leaves=28
num_cat=0
split_feature=23 61 11 23 9 115 87 40 46 7 44 129 28 4 74 104 10 75 28 74 28 46 117 27 41 46 2
split_gain=156.693 104.253 38.9446 32.9875 20.9836 19.4126 19.1919 17.2969 14.5995 14.2463 11.1597 10.835 7.2082 6.29233 5.32361 7.76786 5.3006 4.45974 3.70661 3.43806 3.94924 3.79447 2.54935 1.53593 1.05827 0.431739 0.364862
threshold=283.69500000000005 1.5000000000000002 92.500000000000014 54.150000000000006 61.725000000000009 5.4665000000000008 1.0555555555555558 26.325000000000003 0.59750000000000003 87.500000000000014 1.8050000000000004 93.300000000000011 6.5453061224489799 9.5902777777777803 11.500000000000002 4.5000000000000009 39.875000000000007 9.3666666666666689 2.1020408163265309 4.5000000000000009 5.2650000000000006 0.40062500000000006 0.74677777777777787 8.3750000000000018 140.00000000000003 0.61185000000000012 24.500000000000004
decision_type=2 2 2 2 2 2 2 2 2 2 2 2 2 2 2 2 2 2 2 2 2 2 2 2 2 2 2
left_child=1 2 4 6 -1 -6 11 8 -5 18 -9 13 19 -3 15 -12 -14 -16 -2 -11 21 22 -21 24 -20 -26 -25
right_child=9 3 -4 7 5 -7 -8 10 -10 12 14 -13 16 -15 17 -17 -18 -19 23 20 -22 -23 -24 26 25 -27 -28
